<?xml version="1.0"?>
<opencv_storage>
<cascade>
  <stageType>BOOST</stageType>
  <featureType>LBP</featureType>
  <height>16</height>
  <width>16</width>
  <stageParams>
    <boostType>GAB</boostType>
    <minHitRate>9.9900001287460327e-01</minHitRate>
    <maxFalseAlarm>5.0000000000000000e-01</maxFalseAlarm>
    <weightTrimRate>9.4999999999999996e-01</weightTrimRate>
    <maxDepth>1</maxDepth>
    <maxWeakCount>100</maxWeakCount></stageParams>
  <featureParams>
    <maxCatCount>256</maxCatCount>
    <featSize>1</featSize></featureParams>
  <stageNum>14</stageNum>
  <stages>
    <!-- stage 0 -->
    <_>
      <maxWeakCount>10</maxWeakCount>
      <stageThreshold>-2.6087174415588379e+00</stageThreshold>
      <weakClassifiers>
        <_>
          <internalNodes>
            0 -1 63 -3145778 -1 -137822372 -131073 -1 -2098177 -131073
            -1</internalNodes>
          <leafValues>
            -8.6941921710968018e-01 2.9182484745979309e-01</leafValues></_>
        <_>
          <internalNodes>
            0 -1 10 -292623742 -8193 4747036 -129 -1 -2113537 -285478929
            2147483647</internalNodes>
          <leafValues>
            -7.2487926483154297e-01 2.7110913395881653e-01</leafValues></_>
        <_>
          <internalNodes>
            0 -1 26 -218169618 -65542 -17637378 -537371024 -402653189
            2139029494 -5046274 -9142414</internalNodes>
          <leafValues>
            -6.3020384311676025e-01 2.8981557488441467e-01</leafValues></_>
        <_>
          <internalNodes>
            0 -1 223 1071444989 -71417924 -257 -229448 -1090661956
            -196899 -196612 -17027084</internalNodes>
          <leafValues>
            -4.7009834647178650e-01 3.7057650089263916e-01</leafValues></_>
        <_>
          <internalNodes>
            0 -1 206 -14739712 1063624575 -37946080 -34 -67109232
            -673841195 -215685108 2002779899</internalNodes>
          <leafValues>
            -5.3643780946731567e-01 3.3072599768638611e-01</leafValues></_>
        <_>
          <internalNodes>
            0 -1 189 -289849741 715976655 -257 -285278500 -165003
            -268502017 -25855116 -17498252</internalNodes>
          <leafValues>
            -5.1457095146179199e-01 3.5063359141349792e-01</leafValues></_>
        <_>
          <internalNodes>
            0 -1 33 -823203094 -88276994 -16847158 -173744158 369020925
            1476198271 -76721 1979187199</internalNodes>
          <leafValues>
            -4.7912827134132385e-01 3.0605822801589966e-01</leafValues></_>
        <_>
          <internalNodes>
            0 -1 283 -352326396 -2063602193 788528842 -1560494532
            -8426428 -1625359497 -83956020 -153552940</internalNodes>
          <leafValues>
            -4.7205075621604919e-01 3.0918067693710327e-01</leafValues></_>
        <_>
          <internalNodes>
            0 -1 243 653600263 566034428 -67162144 -1091633476
            -277447307 1342144507 -1075921100 -285278476</internalNodes>
          <leafValues>
            -5.3508341312408447e-01 2.4704848229885101e-01</leafValues></_>
        <_>
          <internalNodes>
            0 -1 215 -9569008 -1073750276 -21692460 -1082263612
            2128443132 207486932 754269944 741473008</internalNodes>
          <leafValues>
            -6.5004336833953857e-01 1.9687068462371826e-01</leafValues></_></weakClassifiers></_>
    <!-- stage 1 -->
    <_>
      <maxWeakCount>13</maxWeakCount>
      <stageThreshold>-2.8052132129669189e+00</stageThreshold>
      <weakClassifiers>
        <_>
          <internalNodes>
            0 -1 182 -706795 -1 -1 -1 -131073 -1025 -1 -1</internalNodes>
          <leafValues>
            -8.2417774200439453e-01 2.3617152869701385e-01</leafValues></_>
        <_>
          <internalNodes>
            0 -1 12 -556863538 -65537 1876230108 -269156354 -2359361 -1
            -6684673 -1</internalNodes>
          <leafValues>
            -6.7833846807479858e-01 2.9281356930732727e-01</leafValues></_>
        <_>
          <internalNodes>
            0 -1 200 -167780607 -243286147 -72613989 -134774985
            -37783778 -205529089 -16782481 -1564999689</internalNodes>
          <leafValues>
            -4.5420157909393311e-01 4.0224745869636536e-01</leafValues></_>
        <_>
          <internalNodes>
            0 -1 196 1071398909 1035779964 -5 -327948 -1275297796
            -1114119 -268648452 -1090765100</internalNodes>
          <leafValues>
            -4.9590426683425903e-01 3.2736566662788391e-01</leafValues></_>
        <_>
          <internalNodes>
            0 -1 48 -2097409 -16842761 -16847106 -83951750 2147442523
            1870495615 -65700 -151519449</internalNodes>
          <leafValues>
            -4.2078113555908203e-01 3.9142599701881409e-01</leafValues></_>
        <_>
          <internalNodes>
            0 -1 191 1878998071 788070138 -285216775 -1359040658
            1072654196 -33685505 -268928140 -1090717772</internalNodes>
          <leafValues>
            -5.3732293844223022e-01 2.7937310934066772e-01</leafValues></_>
        <_>
          <internalNodes>
            0 -1 214 -134226144 -12779651 -488608928 2145910628
            -12601372 662697965 -319841056 1689780034</internalNodes>
          <leafValues>
            -5.6048560142517090e-01 2.4266587197780609e-01</leafValues></_>
        <_>
          <internalNodes>
            0 -1 52 2130345983 1069453115 -289603664 -537493530
            1870364669 1987346293 -884946 -9076874</internalNodes>
          <leafValues>
            -3.9248007535934448e-01 3.4334146976470947e-01</leafValues></_>
        <_>
          <internalNodes>
            0 -1 22 787451630 -22872340 -2437412 -973812488 1342000863
            2145189757 -1880262146 1610306682</internalNodes>
          <leafValues>
            -4.9144542217254639e-01 2.6419061422348022e-01</leafValues></_>
        <_>
          <internalNodes>
            0 -1 249 1044184955 -1343291396 -134479876 -1367932940
            1071415284 -1115147 703903216 -1359153164</internalNodes>
          <leafValues>
            -5.2112811803817749e-01 2.4722717702388763e-01</leafValues></_>
        <_>
          <internalNodes>
            0 -1 145 535796635 -23789578 -68413988 -806498532 -33555996
            -572653640 -20512946 1431674366</internalNodes>
          <leafValues>
            -3.8504695892333984e-01 3.4071868658065796e-01</leafValues></_>
        <_>
          <internalNodes>
            0 -1 23 -823136278 -1903793170 -158440122 -167843204
            -538968097 -1342183646 -470567008 -790960668</internalNodes>
          <leafValues>
            -3.7761715054512024e-01 3.3856141567230225e-01</leafValues></_>
        <_>
          <internalNodes>
            0 -1 183 -17357824 390004012 -407937284 2013130676
            1969216388 -1027 1925053884 387436147</internalNodes>
          <leafValues>
            -5.5408209562301636e-01 2.2241117060184479e-01</leafValues></_></weakClassifiers></_>
    <!-- stage 2 -->
    <_>
      <maxWeakCount>14</maxWeakCount>
      <stageThreshold>-2.4726352691650391e+00</stageThreshold>
      <weakClassifiers>
        <_>
          <internalNodes>
            0 -1 138 -151666943 -65 -139265 -4202529 -4325377 -1 -1 -1</internalNodes>
          <leafValues>
            -8.3729696273803711e-01 -3.9964476600289345e-03</leafValues></_>
        <_>
          <internalNodes>
            0 -1 62 -145773950 -4196417 1331240215 -1 -67108881
            2145386431 1879044027 2147467263</internalNodes>
          <leafValues>
            -6.6237366199493408e-01 1.8962605297565460e-01</leafValues></_>
        <_>
          <internalNodes>
            0 -1 40 -318771457 -360775689 -16843522 -16859178 -5249
            1475868671 -17825937 -151519305</internalNodes>
          <leafValues>
            -4.7839608788490295e-01 3.1650415062904358e-01</leafValues></_>
        <_>
          <internalNodes>
            0 -1 107 1004478335 -172053633 -536936609 -88539138
            2134144116 2121680755 -142835884 -76513456</internalNodes>
          <leafValues>
            -5.4797238111495972e-01 2.6549193263053894e-01</leafValues></_>
        <_>
          <internalNodes>
            0 -1 285 -253 666819496 -293673408 -1560612262 -369116924
            -21102733 -16975132 -251658522</internalNodes>
          <leafValues>
            -3.7943702936172485e-01 3.5665926337242126e-01</leafValues></_>
        <_>
          <internalNodes>
            0 -1 149 -612893698 1799389176 -73804 -1079455256 -8630580
            -1185370888 -104484 895336190</internalNodes>
          <leafValues>
            -4.7082066535949707e-01 2.9388621449470520e-01</leafValues></_>
        <_>
          <internalNodes>
            0 -1 279 -1141899277 741227128 -1073746064 -319881736
            1237142357 654311369 -240460 -855841292</internalNodes>
          <leafValues>
            -5.4757249355316162e-01 2.2086213529109955e-01</leafValues></_>
        <_>
          <internalNodes>
            0 -1 4 954904270 -637210882 2013069309 1433192184 1146970079
            -142671906 2011975103 1163745150</internalNodes>
          <leafValues>
            -5.2266538143157959e-01 2.0841425657272339e-01</leafValues></_>
        <_>
          <internalNodes>
            0 -1 269 1006350205 742062836 -80388 -1879286788 1340932077
            -520292879 -2760968 -2063729156</internalNodes>
          <leafValues>
            -4.1994038224220276e-01 2.7056941390037537e-01</leafValues></_>
        <_>
          <internalNodes>
            0 -1 23 -336598358 -995201306 -822154174 -205718788
            -304152881 -570431514 -1426610380 -203425810</internalNodes>
          <leafValues>
            -3.1167176365852356e-01 3.6252793669700623e-01</leafValues></_>
        <_>
          <internalNodes>
            0 -1 176 251602999 653852535 2142633725 -285285026
            -184779148 2012805999 -503810188 -285409420</internalNodes>
          <leafValues>
            -5.3955841064453125e-01 1.9564427435398102e-01</leafValues></_>
        <_>
          <internalNodes>
            0 -1 185 2132744066 -142606338 -1578836152 -2097154 -92
            -682295339 -1371735174 924319486</internalNodes>
          <leafValues>
            -4.1039511561393738e-01 2.6827168464660645e-01</leafValues></_>
        <_>
          <internalNodes>
            0 -1 78 2137456602 -30736580 786886376 2139054778 2080243670
            1959848400 -593970 401964730</internalNodes>
          <leafValues>
            -3.8609048724174500e-01 2.7447941899299622e-01</leafValues></_>
        <_>
          <internalNodes>
            0 -1 166 2129377747 -29689094 -272769064 -268566532 -205328
            500596733 -16785538 805265278</internalNodes>
          <leafValues>
            -2.7811217308044434e-01 3.7069374322891235e-01</leafValues></_></weakClassifiers></_>
    <!-- stage 3 -->
    <_>
      <maxWeakCount>15</maxWeakCount>
      <stageThreshold>-2.4202914237976074e+00</stageThreshold>
      <weakClassifiers>
        <_>
          <internalNodes>
            0 -1 199 -260702377 -33 -33554433 -8193 -71565313 -1025
            -4194305 -1</internalNodes>
          <leafValues>
            -7.8914308547973633e-01 2.4032922089099884e-01</leafValues></_>
        <_>
          <internalNodes>
            0 -1 8 -433131858 -1052929 536346621 1577058303 1853849535
            -1 -185860097 -285253633</internalNodes>
          <leafValues>
            -6.0402542352676392e-01 2.0712643861770630e-01</leafValues></_>
        <_>
          <internalNodes>
            0 -1 297 -221 -171966675 -1477480672 -189022317 -142607356
            -33620097 -17826172 -150994961</internalNodes>
          <leafValues>
            -3.6238965392112732e-01 4.0924981236457825e-01</leafValues></_>
        <_>
          <internalNodes>
            0 -1 99 -318771233 -1904805962 -553718022 -84508806
            2142928765 2138455927 -65928 -218824844</internalNodes>
          <leafValues>
            -4.8443189263343811e-01 2.7254390716552734e-01</leafValues></_>
        <_>
          <internalNodes>
            0 -1 39 -1359746386 -828474434 -285282620 -26284340
            -16785569 -1174405187 -8392860 -134746329</internalNodes>
          <leafValues>
            -3.7377226352691650e-01 3.1068474054336548e-01</leafValues></_>
        <_>
          <internalNodes>
            0 -1 128 2139059856 1041131310 -18022408 2142010796
            1464848284 1499265116 1040080860 1414851498</internalNodes>
          <leafValues>
            -5.3484356403350830e-01 2.4624724686145782e-01</leafValues></_>
        <_>
          <internalNodes>
            0 -1 132 515706687 -1141064357 -2170881 -1076692033
            2138987860 -595624138 -98692 -17105036</internalNodes>
          <leafValues>
            -4.0413162112236023e-01 2.7918511629104614e-01</leafValues></_>
        <_>
          <internalNodes>
            0 -1 135 -1976525776 -3531275 -5129 -539422986 -33753091
            -1899052035 -1157640978 -269488643</internalNodes>
          <leafValues>
            -2.8555700182914734e-01 3.7248608469963074e-01</leafValues></_>
        <_>
          <internalNodes>
            0 -1 264 -2621471 -1611218955 -822125776 805232252 229887444
            687669244 -285265924 213111547</internalNodes>
          <leafValues>
            -3.5669231414794922e-01 3.1153279542922974e-01</leafValues></_>
        <_>
          <internalNodes>
            0 -1 123 687468191 -1359448178 -16849154 -16973828
            1727421054 -1074304085 -67174692 -84606988</internalNodes>
          <leafValues>
            -4.1989231109619141e-01 2.3604193329811096e-01</leafValues></_>
        <_>
          <internalNodes>
            0 -1 44 -293704089 -1628012681 -1099760014 -63029698
            1224167156 1433689969 -17498921 -797442697</internalNodes>
          <leafValues>
            -3.6285442113876343e-01 2.7499136328697205e-01</leafValues></_>
        <_>
          <internalNodes>
            0 -1 252 1065336500 -1145899144 -136610305 -1073872900
            716515836 1824194551 259611133 -1342178076</internalNodes>
          <leafValues>
            -3.2090261578559875e-01 2.8968009352684021e-01</leafValues></_>
        <_>
          <internalNodes>
            0 -1 112 2129602178 1869086578 71569036 796388214 1876885302
            522058525 1196344639 2038431327</internalNodes>
          <leafValues>
            -4.4856271147727966e-01 2.1604108810424805e-01</leafValues></_>
        <_>
          <internalNodes>
            0 -1 227 -1359019465 -1494287043 -9469954 -288604418
            -1628472508 -69248001 -16844200 -286984204</internalNodes>
          <leafValues>
            -4.2617693543434143e-01 2.2385714948177338e-01</leafValues></_>
        <_>
          <internalNodes>
            0 -1 3 -886520598 -572342534 -1879108491 -33589806
            -1074793489 -68714753 2146350845 -386424714</internalNodes>
          <leafValues>
            -2.6572009921073914e-01 3.5338416695594788e-01</leafValues></_></weakClassifiers></_>
    <!-- stage 4 -->
    <_>
      <maxWeakCount>18</maxWeakCount>
      <stageThreshold>-2.5899090766906738e+00</stageThreshold>
      <weakClassifiers>
        <_>
          <internalNodes>
            0 -1 61 -358289419 -2049 -8705 -10241 1874852863 -4194305
            -2097153 -1</internalNodes>
          <leafValues>
            -8.0565720796585083e-01 1.3698630034923553e-02</leafValues></_>
        <_>
          <internalNodes>
            0 -1 256 -67109116 1006632831 -13402113 -8321 -33614434 -129
            -1084751873 -184549441</internalNodes>
          <leafValues>
            -5.2920705080032349e-01 2.2881938517093658e-01</leafValues></_>
        <_>
          <internalNodes>
            0 -1 5 -857026818 -33751298 1610414077 1608316924 1526725119
            -134235145 1593752827 1031666687</internalNodes>
          <leafValues>
            -5.2242392301559448e-01 2.2313143312931061e-01</leafValues></_>
        <_>
          <internalNodes>
            0 -1 59 285212671 -738263041 -6637825 -9241610 2147449849
            -753665 -557185 -9207945</internalNodes>
          <leafValues>
            -2.7268868684768677e-01 4.4183298945426941e-01</leafValues></_>
        <_>
          <internalNodes>
            0 -1 260 -8660479 2136080369 2147474936 -1363149059
            -590031728 -36619 -598819144 1874851835</internalNodes>
          <leafValues>
            -3.2832819223403931e-01 3.2097193598747253e-01</leafValues></_>
        <_>
          <internalNodes>
            0 -1 209 -2034291145 -1363218594 -21561345 -352387084
            2009873476 -1090650411 -1107501292 -520814604</internalNodes>
          <leafValues>
            -4.8863375186920166e-01 2.2634126245975494e-01</leafValues></_>
        <_>
          <internalNodes>
            0 -1 20 -910708758 -943001888 263105858 -676548894
            -1644167698 -1356339457 -1334921505 -503319020</internalNodes>
          <leafValues>
            -2.9065403342247009e-01 3.4272605180740356e-01</leafValues></_>
        <_>
          <internalNodes>
            0 -1 55 -899144062 -234953874 -303111834 -5312786
            -1074303439 -109283751 -1611391676 -13553888</internalNodes>
          <leafValues>
            -3.8522493839263916e-01 2.5997108221054077e-01</leafValues></_>
        <_>
          <internalNodes>
            0 -1 235 -267383708 -51060755 -1090799681 -4423681
            -1090867810 -285361313 -1094716454 -7800301</internalNodes>
          <leafValues>
            -2.9343122243881226e-01 3.3672848343849182e-01</leafValues></_>
        <_>
          <internalNodes>
            0 -1 36 -287331601 -1302145312 -1560619418 -8982828
            1870585694 1182760767 -16987042 1985990495</internalNodes>
          <leafValues>
            -3.3423995971679688e-01 2.7493569254875183e-01</leafValues></_>
        <_>
          <internalNodes>
            0 -1 180 1992052703 1054612976 -10570754 720170998 -35881123
            -4244481 -570526084 -1157991052</internalNodes>
          <leafValues>
            -4.4310680031776428e-01 2.0612956583499908e-01</leafValues></_>
        <_>
          <internalNodes>
            0 -1 144 1555374215 2084369950 -699075900 -1342308412
            -50570284 2073612281 -196772 905805214</internalNodes>
          <leafValues>
            -3.6441561579704285e-01 2.5796881318092346e-01</leafValues></_>
        <_>
          <internalNodes>
            0 -1 220 1073610613 1067909117 -407057040 -1912746780
            1608453053 628915188 -184603860 -1392521737</internalNodes>
          <leafValues>
            -3.2190892100334167e-01 2.8036823868751526e-01</leafValues></_>
        <_>
          <internalNodes>
            0 -1 245 -1094976717 -1355087932 785822451 -5457416 -753883
            2125880271 -196800 -1359023116</internalNodes>
          <leafValues>
            -3.9497280120849609e-01 2.2144243121147156e-01</leafValues></_>
        <_>
          <internalNodes>
            0 -1 113 -1465192773 -186451040 -296199660 -33773580
            1047703999 -843319300 1028866927 -1665631888</internalNodes>
          <leafValues>
            -3.4241086244583130e-01 2.5899571180343628e-01</leafValues></_>
        <_>
          <internalNodes>
            0 -1 139 -1025080704 2133521204 -1377304783 -1212286428
            -17675389 2079768575 -1594724529 636485487</internalNodes>
          <leafValues>
            -4.1206794977188110e-01 2.1568457782268524e-01</leafValues></_>
        <_>
          <internalNodes>
            0 -1 45 -352846081 -395548802 -720961822 -37765250
            1601043711 1313912532 -151161140 1424449395</internalNodes>
          <leafValues>
            -3.2172673940658569e-01 2.6929241418838501e-01</leafValues></_>
        <_>
          <internalNodes>
            0 -1 146 749219379 141880188 -1159754014 -1359152132
            1996249820 -1117328769 -16847020 -16973964</internalNodes>
          <leafValues>
            -5.2266395092010498e-01 1.6780544817447662e-01</leafValues></_></weakClassifiers></_>
    <!-- stage 5 -->
    <_>
      <maxWeakCount>22</maxWeakCount>
      <stageThreshold>-2.5262029170989990e+00</stageThreshold>
      <weakClassifiers>
        <_>
          <internalNodes>
            0 -1 182 -153757935 -4334721 -1 -2099713 -2359393 -1025 -1
            -1</internalNodes>
          <leafValues>
            -8.0582880973815918e-01 -1.2949308753013611e-01</leafValues></_>
        <_>
          <internalNodes>
            0 -1 2 -402198801 -671634438 -153639538 -33563208 -1048577
            -142739009 -721420626 -1053057</internalNodes>
          <leafValues>
            -4.6622344851493835e-01 2.8353825211524963e-01</leafValues></_>
        <_>
          <internalNodes>
            0 -1 282 -285218289 -4109 -1367364993 -220463169 -75593216
            -2523339 -84017430 -83886081</internalNodes>
          <leafValues>
            -2.8875318169593811e-01 4.1992005705833435e-01</leafValues></_>
        <_>
          <internalNodes>
            0 -1 103 -17113345 523296407 2130623838 -1171062794
            1241271380 2104916855 -33632396 -76353674</internalNodes>
          <leafValues>
            -4.0036496520042419e-01 2.6877436041831970e-01</leafValues></_>
        <_>
          <internalNodes>
            0 -1 218 -43 -33628929 -1107296524 -1925185932 2146957292
            1560071916 805298078 -1913266438</internalNodes>
          <leafValues>
            -3.0585765838623047e-01 3.1136751174926758e-01</leafValues></_>
        <_>
          <internalNodes>
            0 -1 74 1122676366 -1699054106 -50532792 -1343946944
            130850814 1476165628 -303113506 1958174586</internalNodes>
          <leafValues>
            -4.8372623324394226e-01 2.1380832791328430e-01</leafValues></_>
        <_>
          <internalNodes>
            0 -1 154 2146893823 -1691059400 1190559646 2072274864
            1574240220 1603567612 1073012220 2079817722</internalNodes>
          <leafValues>
            -3.2473555207252502e-01 2.7833664417266846e-01</leafValues></_>
        <_>
          <internalNodes>
            0 -1 57 1303323874 -25745924 -822710802 -268521746 -17623425
            -67545220 -604341391 -9208303</internalNodes>
          <leafValues>
            -3.2755368947982788e-01 2.7578735351562500e-01</leafValues></_>
        <_>
          <internalNodes>
            0 -1 232 933852917 -1081802760 -1025507333 -1149342228
            1073708029 -4261121 2076115964 -1075118600</internalNodes>
          <leafValues>
            -3.3899611234664917e-01 2.5304979085922241e-01</leafValues></_>
        <_>
          <internalNodes>
            0 -1 171 1406778263 1051131768 -409538756 -1346437216
            1329552304 1037939628 -84119796 1727364982</internalNodes>
          <leafValues>
            -3.8301354646682739e-01 2.2706140577793121e-01</leafValues></_>
        <_>
          <internalNodes>
            0 -1 82 1886494882 -72630273 629415933 2009067431 -550962
            -1347437633 2012209103 669343481</internalNodes>
          <leafValues>
            -3.5790848731994629e-01 2.3663599789142609e-01</leafValues></_>
        <_>
          <internalNodes>
            0 -1 233 852810621 -1366365956 2130173167 -1410414104
            27839860 888954553 -4425732 -1125189144</internalNodes>
          <leafValues>
            -3.7987190485000610e-01 2.2621616721153259e-01</leafValues></_>
        <_>
          <internalNodes>
            0 -1 64 -1966428960 -1146179614 -322034059 -1210176640
            348013823 -570425346 737297532 1155753028</internalNodes>
          <leafValues>
            -4.7744557261466980e-01 1.6952964663505554e-01</leafValues></_>
        <_>
          <internalNodes>
            0 -1 255 -227485692 620198748 -1099022341 2069512122
            -34085732 -252559367 -1174798370 -334481445</internalNodes>
          <leafValues>
            -3.0503341555595398e-01 2.4540963768959045e-01</leafValues></_>
        <_>
          <internalNodes>
            0 -1 169 1008075440 -558570500 -221479948 -273845292
            1875746788 2132601844 -1345815698 838171646</internalNodes>
          <leafValues>
            -4.1370677947998047e-01 1.8465845286846161e-01</leafValues></_>
        <_>
          <internalNodes>
            0 -1 213 754249747 779943935 -77645829 -1083261250
            2146261877 -571761253 -75726992 -357236748</internalNodes>
          <leafValues>
            -4.3471893668174744e-01 1.7691285908222198e-01</leafValues></_>
        <_>
          <internalNodes>
            0 -1 127 2139615214 1008138748 -19340132 1874852212
            1584696796 494468856 -865334 2008542963</internalNodes>
          <leafValues>
            -3.0406063795089722e-01 2.7385443449020386e-01</leafValues></_>
        <_>
          <internalNodes>
            0 -1 244 2045887787 -1570966188 -267585 -1478689804
            2129947127 -399362 -83984388 -19465228</internalNodes>
          <leafValues>
            -3.1018391251564026e-01 2.4114505946636200e-01</leafValues></_>
        <_>
          <internalNodes>
            0 -1 34 -2040535377 -631085316 -285708690 -1076957462
            -1384271937 -1648427010 -42051585 -1573057</internalNodes>
          <leafValues>
            -2.2332729399204254e-01 3.5178247094154358e-01</leafValues></_>
        <_>
          <internalNodes>
            0 -1 217 -577798768 -1074411028 -860554320 -1612382304
            -1109986320 629079772 -1393271080 1158676326</internalNodes>
          <leafValues>
            -4.0717872977256775e-01 1.8342602252960205e-01</leafValues></_>
        <_>
          <internalNodes>
            0 -1 259 -268461295 536207217 -1080393812 1022099340
            1542806916 1733774454 -1088971076 1889523702</internalNodes>
          <leafValues>
            -3.4835898876190186e-01 2.0790053904056549e-01</leafValues></_>
        <_>
          <internalNodes>
            0 -1 178 790576767 586422269 -25691397 -2097745156
            1860979532 -33827853 -536978572 -83953932</internalNodes>
          <leafValues>
            -4.0072888135910034e-01 1.8441599607467651e-01</leafValues></_></weakClassifiers></_>
    <!-- stage 6 -->
    <_>
      <maxWeakCount>22</maxWeakCount>
      <stageThreshold>-2.3365991115570068e+00</stageThreshold>
      <weakClassifiers>
        <_>
          <internalNodes>
            0 -1 1 -491786257 -1049617 -440950580 -2102385 -67244033
            -1537 -11777 -4097</internalNodes>
          <leafValues>
            -7.8467708826065063e-01 -1.1098559945821762e-01</leafValues></_>
        <_>
          <internalNodes>
            0 -1 199 -267075819 -2375813 -35784897 -1073760417
            -177079671 -150017 -8798305 -17601</internalNodes>
          <leafValues>
            -4.4820508360862732e-01 2.9061987996101379e-01</leafValues></_>
        <_>
          <internalNodes>
            0 -1 202 -11537024 389021565 1056722940 2000515063
            1920832264 -10748939 370614075 935067551</internalNodes>
          <leafValues>
            -4.5942682027816772e-01 2.3056095838546753e-01</leafValues></_>
        <_>
          <internalNodes>
            0 -1 274 -100681221 173717117 -323 754938879 -1342330945
            218103727 1609430527 -1930428929</internalNodes>
          <leafValues>
            -2.6443681120872498e-01 3.8342371582984924e-01</leafValues></_>
        <_>
          <internalNodes>
            0 -1 133 234777567 503250943 -570433537 2071134135
            1439979888 2146579439 -1082638596 -72155274</internalNodes>
          <leafValues>
            -3.5012128949165344e-01 2.6817449927330017e-01</leafValues></_>
        <_>
          <internalNodes>
            0 -1 92 1572309726 1516172846 -962802600 -1344413828
            -545456130 1608305660 -1124147362 1428029434</internalNodes>
          <leafValues>
            -3.4864869713783264e-01 2.5456735491752625e-01</leafValues></_>
        <_>
          <internalNodes>
            0 -1 268 -285278221 1068433324 2145250800 -1363148802
            -285278284 777386485 -27271180 -177210377</internalNodes>
          <leafValues>
            -3.0020284652709961e-01 2.7333787083625793e-01</leafValues></_>
        <_>
          <internalNodes>
            0 -1 85 -928059665 -87118934 2112876221 -771819786
            -1077415425 -1141014659 770072267 -437291675</internalNodes>
          <leafValues>
            -2.4073150753974915e-01 3.1070271134376526e-01</leafValues></_>
        <_>
          <internalNodes>
            0 -1 278 2137517877 791084532 -134250848 -1342245916
            -1669562508 1861955455 -1527810828 -453445644</internalNodes>
          <leafValues>
            -4.6164414286613464e-01 1.6817477345466614e-01</leafValues></_>
        <_>
          <internalNodes>
            0 -1 174 2004795026 -569508868 1873068000 -1343750162
            1314742004 492329692 1055320858 1950055934</internalNodes>
          <leafValues>
            -3.7099072337150574e-01 2.1901650726795197e-01</leafValues></_>
        <_>
          <internalNodes>
            0 -1 73 -84964610 -1686963288 -762913218 1979309780
            -925082642 1258060662 -17104998 1609949022</internalNodes>
          <leafValues>
            -2.8811752796173096e-01 2.6176431775093079e-01</leafValues></_>
        <_>
          <internalNodes>
            0 -1 136 -1038056543 -18470159 -172339201 -1745410570
            -1367343395 -536887306 -310424644 -1388900619</internalNodes>
          <leafValues>
            -2.4713340401649475e-01 2.9730007052421570e-01</leafValues></_>
        <_>
          <internalNodes>
            0 -1 130 -161549578 -561218176 -24197436 -3674256 -73606716
            1992358396 2130595544 1828714463</internalNodes>
          <leafValues>
            -2.8793099522590637e-01 2.4539464712142944e-01</leafValues></_>
        <_>
          <internalNodes>
            0 -1 143 1682907867 -558957574 -342040772 -809644040
            1406204900 2027203260 -1094784130 2140524378</internalNodes>
          <leafValues>
            -3.1441575288772583e-01 2.5114771723747253e-01</leafValues></_>
        <_>
          <internalNodes>
            0 -1 272 1064803889 -1274878248 -26771 -1627763460 225804284
            532259325 1291786109 -319881996</internalNodes>
          <leafValues>
            -3.6699154973030090e-01 1.9867113232612610e-01</leafValues></_>
        <_>
          <internalNodes>
            0 -1 87 -1930916190 986203762 -34453155 2012569115
            1014778300 1526528507 1996361708 1723825911</internalNodes>
          <leafValues>
            -4.5252570509910583e-01 1.6567093133926392e-01</leafValues></_>
        <_>
          <internalNodes>
            0 -1 239 -50377455 -1410840203 -1430393880 -1074086315
            -1158054460 -1107920517 -1090724136 -1099632784</internalNodes>
          <leafValues>
            -3.2287627458572388e-01 2.2561767697334290e-01</leafValues></_>
        <_>
          <internalNodes>
            0 -1 117 -324339013 -1174550 -84530561 -67722 1780439511
            -1376019477 -822123947 -856395532</internalNodes>
          <leafValues>
            -2.6153340935707092e-01 2.7881941199302673e-01</leafValues></_>
        <_>
          <internalNodes>
            0 -1 261 -551683327 -5030555 -17842632 -558581256 1094121156
            1945566197 -201934146 854065142</internalNodes>
          <leafValues>
            -2.9062688350677490e-01 2.5327783823013306e-01</leafValues></_>
        <_>
          <internalNodes>
            0 -1 237 -88781743 -1212958723 -17498113 -411476050
            -19104872 -1132594242 -357499394 -1158561807</internalNodes>
          <leafValues>
            -2.5922000408172607e-01 2.7370136976242065e-01</leafValues></_>
        <_>
          <internalNodes>
            0 -1 229 -1392678601 107798376 -639769617 -1564542988
            -352495116 -2234003 -319242960 -1359675788</internalNodes>
          <leafValues>
            -4.5091983675956726e-01 1.4992286264896393e-01</leafValues></_>
        <_>
          <internalNodes>
            0 -1 156 1610575102 -1612906785 -897911276 -38352148
            -1894529968 -1401619724 -155504534 880082814</internalNodes>
          <leafValues>
            -3.6065331101417542e-01 1.8332593142986298e-01</leafValues></_></weakClassifiers></_>
    <!-- stage 7 -->
    <_>
      <maxWeakCount>26</maxWeakCount>
      <stageThreshold>-2.4232132434844971e+00</stageThreshold>
      <weakClassifiers>
        <_>
          <internalNodes>
            0 -1 236 -185532587 -3585 -576728097 -1 -16449 -4475137
            -1079050497 -4210753</internalNodes>
          <leafValues>
            -7.8020912408828735e-01 -9.7472921013832092e-02</leafValues></_>
        <_>
          <internalNodes>
            0 -1 21 -301014289 -863720758 -677323257 -54809 -1031540737
            -153952097 1423833071 -134221825</internalNodes>
          <leafValues>
            -4.6823433041572571e-01 2.4760939180850983e-01</leafValues></_>
        <_>
          <internalNodes>
            0 -1 80 1390048255 1945628383 -1158610945 -610092049
            2122084605 2071093109 -9142401 -9289965</internalNodes>
          <leafValues>
            -3.2265865802764893e-01 3.3647552132606506e-01</leafValues></_>
        <_>
          <internalNodes>
            0 -1 198 1946273988 2105229181 -134889474 -44057803
            1962803135 -1143237897 652640207 930594679</internalNodes>
          <leafValues>
            -3.7004098296165466e-01 2.6592347025871277e-01</leafValues></_>
        <_>
          <internalNodes>
            0 -1 296 2138439645 -8912903 -76 -1898074628 -571555852
            -33686035 -272699400 -917554</internalNodes>
          <leafValues>
            -2.4791279435157776e-01 3.3957454562187195e-01</leafValues></_>
        <_>
          <internalNodes>
            0 -1 122 364357887 -29599962 1609361236 -304224292
            -103244912 -48969032 -167989378 1172152310</internalNodes>
          <leafValues>
            -2.8695097565650940e-01 2.8055489063262939e-01</leafValues></_>
        <_>
          <internalNodes>
            0 -1 71 -557934948 218038250 2097078268 297360032 -558661666
            2138364924 -576126977 1565867390</internalNodes>
          <leafValues>
            -4.0282061696052551e-01 2.0385153591632843e-01</leafValues></_>
        <_>
          <internalNodes>
            0 -1 138 774943249 -156123205 -312485059 -1074884625
            -1137314607 -100796417 1056784154 -1115956365</internalNodes>
          <leafValues>
            -2.5303265452384949e-01 3.0096581578254700e-01</leafValues></_>
        <_>
          <internalNodes>
            0 -1 211 -989728861 -44003460 1470914520 -136479820
            1960607696 1071492772 1857846618 1006534266</internalNodes>
          <leafValues>
            -2.8666681051254272e-01 2.6124534010887146e-01</leafValues></_>
        <_>
          <internalNodes>
            0 -1 31 -831608073 455797156 -696859041 -180949396
            1962466943 1022262271 -538443139 1887391375</internalNodes>
          <leafValues>
            -2.9684400558471680e-01 2.3661667108535767e-01</leafValues></_>
        <_>
          <internalNodes>
            0 -1 3 1076422140 -20775174 1439374581 -571015842 1942909935
            -76629005 2137994365 -1899612037</internalNodes>
          <leafValues>
            -2.9546359181404114e-01 2.4191857874393463e-01</leafValues></_>
        <_>
          <internalNodes>
            0 -1 105 2080047103 767336989 -748798134 791193598
            1333034620 -571446403 -7180300 -17334666</internalNodes>
          <leafValues>
            -2.9102215170860291e-01 2.3038633167743683e-01</leafValues></_>
        <_>
          <internalNodes>
            0 -1 46 -428349724 -144296028 1828447916 -184620092
            2131936652 1996332860 -1223564296 -685772998</internalNodes>
          <leafValues>
            -2.4627195298671722e-01 2.8644630312919617e-01</leafValues></_>
        <_>
          <internalNodes>
            0 -1 192 1598422975 -1456865548 -65539 -1347421020
            -1084463875 1014824957 -270635170 805304062</internalNodes>
          <leafValues>
            -2.1309083700180054e-01 3.1848254799842834e-01</leafValues></_>
        <_>
          <internalNodes>
            0 -1 228 2004567985 993586165 -2084133472 -1346488324
            2132172464 2145114871 -1208683650 603455350</internalNodes>
          <leafValues>
            -2.9337528347969055e-01 2.3594422638416290e-01</leafValues></_>
        <_>
          <internalNodes>
            0 -1 280 -1214301419 -1195837456 -569524225 -1929609748
            700709857 884062365 1241328892 -1930435332</internalNodes>
          <leafValues>
            -3.2610911130905151e-01 2.1129819750785828e-01</leafValues></_>
        <_>
          <internalNodes>
            0 -1 162 682360848 455534581 785284991 1060155132 425125820
            1275049835 -839074054 804929406</internalNodes>
          <leafValues>
            -5.6141781806945801e-01 1.1503902822732925e-01</leafValues></_>
        <_>
          <internalNodes>
            0 -1 76 -16790275 1064427494 1987845756 -80289804 1609848020
            1609924469 -538689652 -143262242</internalNodes>
          <leafValues>
            -2.2397622466087341e-01 3.0567112565040588e-01</leafValues></_>
        <_>
          <internalNodes>
            0 -1 293 1530105617 -2851883 -2103138330 975372148 -42099200
            -758515015 -372573635 1735521860</internalNodes>
          <leafValues>
            -3.4474250674247742e-01 1.9295270740985870e-01</leafValues></_>
        <_>
          <internalNodes>
            0 -1 0 1380646028 -572819060 267505646 -169346326 -409208321
            -1079705617 -4196421 -263493</internalNodes>
          <leafValues>
            -1.4687867462635040e-01 4.6928274631500244e-01</leafValues></_>
        <_>
          <internalNodes>
            0 -1 231 1457717047 -1136863324 -211814195 -1351699464
            -52464796 -105140832 -134448784 754905588</internalNodes>
          <leafValues>
            -4.2369127273559570e-01 1.6210231184959412e-01</leafValues></_>
        <_>
          <internalNodes>
            0 -1 165 1455263735 -1285500940 2142605071 -1409945860
            2044616148 -24590147 -18055332 670138230</internalNodes>
          <leafValues>
            -2.6165792346000671e-01 2.4972906708717346e-01</leafValues></_>
        <_>
          <internalNodes>
            0 -1 179 528153917 -556467208 89805791 1878714136
            -1388511792 1020556276 -135501348 1048552186</internalNodes>
          <leafValues>
            -2.9760557413101196e-01 2.2431997954845428e-01</leafValues></_>
        <_>
          <internalNodes>
            0 -1 168 1656404789 -1132663812 2111526719 -270627844
            -606718979 -3739145 1842118476 -1359054096</internalNodes>
          <leafValues>
            -3.7093093991279602e-01 1.7499214410781860e-01</leafValues></_>
        <_>
          <internalNodes>
            0 -1 246 2142747633 532217588 -1128399372 1601129648
            -1652762820 125263861 1828461806 2143289310</internalNodes>
          <leafValues>
            -2.3178942501544952e-01 3.0791357159614563e-01</leafValues></_>
        <_>
          <internalNodes>
            0 -1 19 216984255 -74552370 -3674523 2142972876 816717821
            -617808 2013156860 1732246767</internalNodes>
          <leafValues>
            -2.7063465118408203e-01 2.6993259787559509e-01</leafValues></_></weakClassifiers></_>
    <!-- stage 8 -->
    <_>
      <maxWeakCount>25</maxWeakCount>
      <stageThreshold>-2.3616492748260498e+00</stageThreshold>
      <weakClassifiers>
        <_>
          <internalNodes>
            0 -1 17 -403705873 -3152913 1129570727 -4433 -1572865
            -403704853 -173017089 -1025</internalNodes>
          <leafValues>
            -7.6733314990997314e-01 -9.6707105636596680e-02</leafValues></_>
        <_>
          <internalNodes>
            0 -1 294 -11538397 -69733377 731428430 1918960895 -163054848
            -226824118 -67110226 -204476721</internalNodes>
          <leafValues>
            -4.6758019924163818e-01 2.0905797183513641e-01</leafValues></_>
        <_>
          <internalNodes>
            0 -1 6 -1570574620 -1124310273 2141046751 -1493340425
            704605951 -67407173 -14577665 -20977409</internalNodes>
          <leafValues>
            -3.5955029726028442e-01 2.6446712017059326e-01</leafValues></_>
        <_>
          <internalNodes>
            0 -1 51 2147413999 -98321 -4522001 -463106 2138980343
            1999926517 -13598859 -9175178</internalNodes>
          <leafValues>
            -2.8422656655311584e-01 3.1046453118324280e-01</leafValues></_>
        <_>
          <internalNodes>
            0 -1 38 -286331137 -625034242 -27734042 -1651042 -537207841
            1341975406 2113208318 1291837094</internalNodes>
          <leafValues>
            -3.3593991398811340e-01 2.2357138991355896e-01</leafValues></_>
        <_>
          <internalNodes>
            0 -1 197 885945461 1039948252 -295764227 234669500
            2111102832 -184750876 744388140 1018963132</internalNodes>
          <leafValues>
            -3.9465329051017761e-01 1.9128842651844025e-01</leafValues></_>
        <_>
          <internalNodes>
            0 -1 49 -2381077 -19976721 -287183121 -1487950146 -19407364
            1593670997 -269206596 -47088844</internalNodes>
          <leafValues>
            -2.3133738338947296e-01 2.9592114686965942e-01</leafValues></_>
        <_>
          <internalNodes>
            0 -1 126 1593732830 -1659064323 -256475138 797374416
            1507347148 259055550 -1938096548 1592999774</internalNodes>
          <leafValues>
            -3.3651360869407654e-01 2.0428538322448730e-01</leafValues></_>
        <_>
          <internalNodes>
            0 -1 267 1006583730 772324280 -1847602711 -1345790988
            249511380 -1430537286 1811699168 -1929461260</internalNodes>
          <leafValues>
            -4.3651813268661499e-01 1.4208357036113739e-01</leafValues></_>
        <_>
          <internalNodes>
            0 -1 194 2107113437 2112158968 -1684803728 -274137940
            2119459696 -11228948 536759848 1069231862</internalNodes>
          <leafValues>
            -3.1543928384780884e-01 2.0011350512504578e-01</leafValues></_>
        <_>
          <internalNodes>
            0 -1 160 -466574671 -604295757 221512573 1473584574
            -1367620912 -69337092 1968553850 1039764973</internalNodes>
          <leafValues>
            -2.3513138294219971e-01 2.7976864576339722e-01</leafValues></_>
        <_>
          <internalNodes>
            0 -1 203 2137773077 1920728691 -276894723 837943091
            2004352644 -813711362 -151126370 -1607074529</internalNodes>
          <leafValues>
            -2.2970016300678253e-01 2.8410130739212036e-01</leafValues></_>
        <_>
          <internalNodes>
            0 -1 120 516143339 -560139530 -308490404 -268605514
            2046089844 -103488784 -65666 428727998</internalNodes>
          <leafValues>
            -2.8174003958702087e-01 2.2761864960193634e-01</leafValues></_>
        <_>
          <internalNodes>
            0 -1 75 -2106641 465534718 -89104526 -1279787016 -241922
            1563885431 -1640608052 2134899678</internalNodes>
          <leafValues>
            -1.9798542559146881e-01 3.1535395979881287e-01</leafValues></_>
        <_>
          <internalNodes>
            0 -1 208 491241387 1852099316 -143755050 -1355942972
            -19047152 -966993106 -17932502 1073577726</internalNodes>
          <leafValues>
            -2.5947049260139465e-01 2.4450835585594177e-01</leafValues></_>
        <_>
          <internalNodes>
            0 -1 111 1893893650 369541798 1155815130 1709293430
            -1695408148 1039612159 -957199638 805257087</internalNodes>
          <leafValues>
            -3.7105062603950500e-01 1.7251493036746979e-01</leafValues></_>
        <_>
          <internalNodes>
            0 -1 27 -1494571348 776927206 -85012667 -806597014
            1601788796 1205646335 -16847028 1610350310</internalNodes>
          <leafValues>
            -4.3237167596817017e-01 1.4597624540328979e-01</leafValues></_>
        <_>
          <internalNodes>
            0 -1 266 2147401025 769581017 -1377927184 -1359196476
            527697404 82378324 -1510199460 69529576</internalNodes>
          <leafValues>
            -5.8206081390380859e-01 1.1102903634309769e-01</leafValues></_>
        <_>
          <internalNodes>
            0 -1 20 -181935158 -288952636 230567010 -671159326
            1560278959 -2087737613 -1317603665 -176171346</internalNodes>
          <leafValues>
            -2.3313626646995544e-01 3.0335849523544312e-01</leafValues></_>
        <_>
          <internalNodes>
            0 -1 173 2093059509 505872124 -717824468 737857040
            -908174992 -1073947656 -152142500 654147414</internalNodes>
          <leafValues>
            -3.8489606976509094e-01 1.7822335660457611e-01</leafValues></_>
        <_>
          <internalNodes>
            0 -1 60 1074102449 -605247254 -176950283 -104176391
            392950545 -18083460 994539004 -1072423244</internalNodes>
          <leafValues>
            -2.7164354920387268e-01 2.3421156406402588e-01</leafValues></_>
        <_>
          <internalNodes>
            0 -1 134 1660826355 149838053 -627643553 485388679
            -1693969556 -615120143 -77578466 -98402438</internalNodes>
          <leafValues>
            -3.2023599743843079e-01 1.8759372830390930e-01</leafValues></_>
        <_>
          <internalNodes>
            0 -1 289 -267849222 -572528293 1161649577 -541102353
            -677708642 -5373993 -38027570 -1066501</internalNodes>
          <leafValues>
            -1.1132808774709702e-01 5.6844872236251831e-01</leafValues></_>
        <_>
          <internalNodes>
            0 -1 234 1574026167 -1645330516 -1073940659 -1912700996
            -276957595 -1407322628 1591696509 -1929382657</internalNodes>
          <leafValues>
            -2.0332697033882141e-01 3.0563211441040039e-01</leafValues></_>
        <_>
          <internalNodes>
            0 -1 119 1412399449 519633662 -716416162 -822518152
            1568431601 2078077880 -268647596 768958430</internalNodes>
          <leafValues>
            -2.8441220521926880e-01 2.1013276278972626e-01</leafValues></_></weakClassifiers></_>
    <!-- stage 9 -->
    <_>
      <maxWeakCount>31</maxWeakCount>
      <stageThreshold>-2.4688754081726074e+00</stageThreshold>
      <weakClassifiers>
        <_>
          <internalNodes>
            0 -1 81 -895418371 -134946 -3672577 -44809 -7602181 -271395
            -278135809 -5121</internalNodes>
          <leafValues>
            -7.7384901046752930e-01 -2.4623872339725494e-01</leafValues></_>
        <_>
          <internalNodes>
            0 -1 290 -1864911616 -1212153921 -136449033 -195297345
            2007888446 -624057464 2140667759 -159383649</internalNodes>
          <leafValues>
            -4.8093193769454956e-01 1.3320288062095642e-01</leafValues></_>
        <_>
          <internalNodes>
            0 -1 58 1442152393 1052741247 -1951143697 1730866167
            -885833735 -1154385282 -203260043 -10256537</internalNodes>
          <leafValues>
            -3.1799191236495972e-01 2.7073886990547180e-01</leafValues></_>
        <_>
          <internalNodes>
            0 -1 241 -42623456 2133983137 -225838124 -4981020 -648225640
            -75628576 2081201550 1063780350</internalNodes>
          <leafValues>
            -3.2563701272010803e-01 2.2279833257198334e-01</leafValues></_>
        <_>
          <internalNodes>
            0 -1 167 2139034240 1059041318 -294859956 -43061468
            -1088451692 1073528445 -424882612 932674162</internalNodes>
          <leafValues>
            -4.0720477700233459e-01 2.0753435790538788e-01</leafValues></_>
        <_>
          <internalNodes>
            0 -1 28 -336859442 -860950838 -1133098810 -37836830
            -268959762 434548477 1994290191 -141821953</internalNodes>
          <leafValues>
            -2.5633469223976135e-01 2.8450700640678406e-01</leafValues></_>
        <_>
          <internalNodes>
            0 -1 114 -133505376 -1155862538 -40079492 905412464
            1018961609 -16777221 -536969220 1693800310</internalNodes>
          <leafValues>
            -3.4095919132232666e-01 1.9654865562915802e-01</leafValues></_>
        <_>
          <internalNodes>
            0 -1 288 1907866411 685812144 -1650999955 -1930498100
            2132650917 82719737 -136333315 -1997675011</internalNodes>
          <leafValues>
            -3.0056580901145935e-01 2.2224898636341095e-01</leafValues></_>
        <_>
          <internalNodes>
            0 -1 131 2105474559 127962934 -1181550596 792650496
            1576295416 1508931838 -88965424 2146926458</internalNodes>
          <leafValues>
            -2.9779538512229919e-01 2.1105392277240753e-01</leafValues></_>
        <_>
          <internalNodes>
            0 -1 41 -93442353 -1888469124 -1597080708 -1142411330
            2139889534 2113174992 -21726296 -663453904</internalNodes>
          <leafValues>
            -4.5539256930351257e-01 1.3236516714096069e-01</leafValues></_>
        <_>
          <internalNodes>
            0 -1 18 445263594 -1830099290 -541825300 167202556 416073215
            -50403332 846640510 1149238392</internalNodes>
          <leafValues>
            -3.7409916520118713e-01 1.5124861896038055e-01</leafValues></_>
        <_>
          <internalNodes>
            0 -1 276 -28717027 -34341579 1869000575 709918204 -21704064
            -35686570 -935412482 -401278088</internalNodes>
          <leafValues>
            -2.2365015745162964e-01 2.6459804177284241e-01</leafValues></_>
        <_>
          <internalNodes>
            0 -1 88 504040194 -19729409 1359010392 1170071254 2110780885
            -10552876 -146997446 1599406078</internalNodes>
          <leafValues>
            -4.0040031075477600e-01 1.4700618386268616e-01</leafValues></_>
        <_>
          <internalNodes>
            0 -1 25 851226238 -1724055836 -14360850 -38277460 2145303480
            2146761406 -21206052 1284767726</internalNodes>
          <leafValues>
            -3.3203363418579102e-01 1.7578740417957306e-01</leafValues></_>
        <_>
          <internalNodes>
            0 -1 125 -1719235883 -1098362228 1222573400 725540776
            1257851892 2052914040 -558735606 853962238</internalNodes>
          <leafValues>
            -3.4142184257507324e-01 1.7539764940738678e-01</leafValues></_>
        <_>
          <internalNodes>
            0 -1 190 -2003491553 586981853 -759574017 -276002778
            -206996235 -86782277 -69453452 -285409424</internalNodes>
          <leafValues>
            -3.9366853237152100e-01 1.4581465721130371e-01</leafValues></_>
        <_>
          <internalNodes>
            0 -1 13 -790456086 -242181472 366429986 -1022433630
            -140257893 -306249738 -4262513 -33819413</internalNodes>
          <leafValues>
            -1.6171737015247345e-01 3.8856065273284912e-01</leafValues></_>
        <_>
          <internalNodes>
            0 -1 225 1418690688 2063137662 -101785601 894620592
            850122751 -1102633 1053089789 971233078</internalNodes>
          <leafValues>
            -3.0511519312858582e-01 1.9095072150230408e-01</leafValues></_>
        <_>
          <internalNodes>
            0 -1 248 -1098908185 869856504 -1663092488 -1645248904
            1794981812 376569677 -1778868984 791936886</internalNodes>
          <leafValues>
            -3.0228754878044128e-01 1.9535474479198456e-01</leafValues></_>
        <_>
          <internalNodes>
            0 -1 186 1031113619 -1362304027 -204689224 -1880686894
            -608222220 -73891666 -336798354 1068195822</internalNodes>
          <leafValues>
            -2.3742030560970306e-01 2.4294510483741760e-01</leafValues></_>
        <_>
          <internalNodes>
            0 -1 161 606341120 -1570819095 761624572 125596628
            -1125250585 -580193 -1654244612 245702108</internalNodes>
          <leafValues>
            -5.9832358360290527e-01 9.5326341688632965e-02</leafValues></_>
        <_>
          <internalNodes>
            0 -1 129 511704815 1049951958 -30215297 -1166360772
            2147371072 1031428395 -1098195876 -1166999692</internalNodes>
          <leafValues>
            -4.0852859616279602e-01 1.3249954581260681e-01</leafValues></_>
        <_>
          <internalNodes>
            0 -1 181 -1210188170 -1617044106 1779752688 -1075044388
            1481106244 477952372 203386732 880803066</internalNodes>
          <leafValues>
            -3.5108590126037598e-01 1.6199211776256561e-01</leafValues></_>
        <_>
          <internalNodes>
            0 -1 42 -288692529 -1917420364 -58791146 -2130062 -74568720
            1608921532 -191729794 1190125151</internalNodes>
          <leafValues>
            -2.5059118866920471e-01 2.3085647821426392e-01</leafValues></_>
        <_>
          <internalNodes>
            0 -1 274 1638869503 307108463 -10824263 -1468075139
            -1947065546 159149051 1571159487 -1929445394</internalNodes>
          <leafValues>
            -2.3398919403553009e-01 2.3885665833950043e-01</leafValues></_>
        <_>
          <internalNodes>
            0 -1 152 -176431107 2103065268 -729880460 -1381010264
            -610646028 685570492 -88848034 1949245431</internalNodes>
          <leafValues>
            -2.5454616546630859e-01 2.1131956577301025e-01</leafValues></_>
        <_>
          <internalNodes>
            0 -1 137 1719765507 -812711940 610131931 1314520956
            2111635294 2147368957 2065550838 2141060057</internalNodes>
          <leafValues>
            -2.0613636076450348e-01 2.7705448865890503e-01</leafValues></_>
        <_>
          <internalNodes>
            0 -1 84 -1509770567 -557924104 790091380 -134288808
            1795411677 -1141776207 1527708526 -2047942304</internalNodes>
          <leafValues>
            -2.6729962229728699e-01 2.1657827496528625e-01</leafValues></_>
        <_>
          <internalNodes>
            0 -1 124 1388226995 978644701 -383844628 -273933444
            1938358270 -4921418 954496590 2147319670</internalNodes>
          <leafValues>
            -2.6656594872474670e-01 2.1851156651973724e-01</leafValues></_>
        <_>
          <internalNodes>
            0 -1 299 -1854015118 -1415803719 -942497806 -1043944736
            351462385 1336189379 987477908 -2075870220</internalNodes>
          <leafValues>
            -3.7635946273803711e-01 1.4892490208148956e-01</leafValues></_>
        <_>
          <internalNodes>
            0 -1 182 -1029399216 -1631610817 -1883578407 -1615874066
            -246913404 -2099978 2049654623 -1119993069</internalNodes>
          <leafValues>
            -2.3070533573627472e-01 2.4055287241935730e-01</leafValues></_></weakClassifiers></_>
    <!-- stage 10 -->
    <_>
      <maxWeakCount>28</maxWeakCount>
      <stageThreshold>-2.2646448612213135e+00</stageThreshold>
      <weakClassifiers>
        <_>
          <internalNodes>
            0 -1 199 -252313771 -33 -1109527105 -2244645 -17302871
            -67373569 -10616897 -33</internalNodes>
          <leafValues>
            -7.7976989746093750e-01 -3.3969986438751221e-01</leafValues></_>
        <_>
          <internalNodes>
            0 -1 295 -145229901 2147467262 -1824784608 -1090655343
            -134750304 -692653318 -18354296 -1048645</internalNodes>
          <leafValues>
            -3.8696461915969849e-01 2.1591946482658386e-01</leafValues></_>
        <_>
          <internalNodes>
            0 -1 65 -741675346 -1884648822 1608310655 494231071
            1205813487 2108095485 1944995071 2010599231</internalNodes>
          <leafValues>
            -3.5527294874191284e-01 2.1974746882915497e-01</leafValues></_>
        <_>
          <internalNodes>
            0 -1 301 -610809857 -1430376770 -578863115 -1367472913
            -1611989317 762830262 -151535681 -1930494001</internalNodes>
          <leafValues>
            -2.2410635650157928e-01 3.0410423874855042e-01</leafValues></_>
        <_>
          <internalNodes>
            0 -1 201 1026887936 1072953855 2144133116 1475992572
            458620880 -541105290 1595210680 1599437436</internalNodes>
          <leafValues>
            -6.0756921768188477e-01 1.1247198283672333e-01</leafValues></_>
        <_>
          <internalNodes>
            0 -1 98 -643006990 774435834 777289452 792681468 -105067284
            -564903468 1784733626 1440053722</internalNodes>
          <leafValues>
            -3.5093519091606140e-01 1.9826580584049225e-01</leafValues></_>
        <_>
          <internalNodes>
            0 -1 47 -1228952082 795779822 -495268788 -277955586
            -721463044 -1334049028 -2064840 -147820976</internalNodes>
          <leafValues>
            -3.7743365764617920e-01 1.7290017008781433e-01</leafValues></_>
        <_>
          <internalNodes>
            0 -1 175 2134637216 1049424692 -131837972 -1364330404
            -69579820 1551433440 -394916514 878034174</internalNodes>
          <leafValues>
            -4.1662079095840454e-01 1.5271008014678955e-01</leafValues></_>
        <_>
          <internalNodes>
            0 -1 207 1985839287 2134440952 131394544 -1342276804
            -539534352 2143120116 -16974018 754843447</internalNodes>
          <leafValues>
            -2.5782212615013123e-01 2.2731183469295502e-01</leafValues></_>
        <_>
          <internalNodes>
            0 -1 212 -33702015 -1084254723 -837296376 -1612845683 -35640
            1439549436 -868984738 758644606</internalNodes>
          <leafValues>
            -2.6655107736587524e-01 2.0477697253227234e-01</leafValues></_>
        <_>
          <internalNodes>
            0 -1 35 -453071249 247526638 -863598516 -1091639344
            -40572547 351713627 -54970547 1641527796</internalNodes>
          <leafValues>
            -4.7587463259696960e-01 1.1724631488323212e-01</leafValues></_>
        <_>
          <internalNodes>
            0 -1 79 1980782805 -560234787 -70670599 1173482234
            1952260692 -7387074 -1352530069 -13427904</internalNodes>
          <leafValues>
            -2.5513160228729248e-01 2.1748937666416168e-01</leafValues></_>
        <_>
          <internalNodes>
            0 -1 97 1591692027 982449696 2097086292 1874820740
            -537076226 1608974334 -21053601 1052770298</internalNodes>
          <leafValues>
            -2.1918413043022156e-01 2.5400167703628540e-01</leafValues></_>
        <_>
          <internalNodes>
            0 -1 219 -539013379 -1134496532 -210557476 -1128342276
            460327324 -1434688515 215887740 905912055</internalNodes>
          <leafValues>
            -2.6249927282333374e-01 2.2422029078006744e-01</leafValues></_>
        <_>
          <internalNodes>
            0 -1 56 785337006 -2135069765 -897538306 -1435992130
            128397552 1545876963 -212587983 -76424330</internalNodes>
          <leafValues>
            -3.8325697183609009e-01 1.4596223831176758e-01</leafValues></_>
        <_>
          <internalNodes>
            0 -1 224 -731905964 -134285858 1056543439 -548423172
            -141362792 -38253581 778337983 -1101717604</internalNodes>
          <leafValues>
            -2.5557476282119751e-01 2.1026225388050079e-01</leafValues></_>
        <_>
          <internalNodes>
            0 -1 29 1821673102 1991438072 -435229970 -80242 1525955579
            -1937161816 -303512033 1970620004</internalNodes>
          <leafValues>
            -3.0532148480415344e-01 1.7844282090663910e-01</leafValues></_>
        <_>
          <internalNodes>
            0 -1 157 204375647 429403125 362518910 586292223 -812640176
            -68008779 -80716240 -14533772</internalNodes>
          <leafValues>
            -3.6761352419853210e-01 1.4031596481800079e-01</leafValues></_>
        <_>
          <internalNodes>
            0 -1 142 -1364546031 -1229297694 -27992331 -41097500
            2123398045 -1578407126 -1968670600 -929245900</internalNodes>
          <leafValues>
            -3.0652058124542236e-01 1.6864947974681854e-01</leafValues></_>
        <_>
          <internalNodes>
            0 -1 230 1862068507 489735216 -610307564 -1643226892
            -634626083 993337336 -2065817476 799013302</internalNodes>
          <leafValues>
            -2.7830290794372559e-01 1.8845583498477936e-01</leafValues></_>
        <_>
          <internalNodes>
            0 -1 11 176564736 -1360467216 1246527372 -829624580
            1811929628 2134540414 -31458776 1331228668</internalNodes>
          <leafValues>
            -7.5521314144134521e-01 6.9125339388847351e-02</leafValues></_>
        <_>
          <internalNodes>
            0 -1 89 -789840897 -219218014 921632559 1436648304
            2139061901 -1476501507 1861121885 -991068618</internalNodes>
          <leafValues>
            -1.8785384297370911e-01 3.0452233552932739e-01</leafValues></_>
        <_>
          <internalNodes>
            0 -1 118 -19015647 -5312594 2113818412 2113787620 2113799918
            2126512108 1878793854 1744273267</internalNodes>
          <leafValues>
            -2.0112559199333191e-01 2.6041755080223083e-01</leafValues></_>
        <_>
          <internalNodes>
            0 -1 172 -1028051405 -1436624388 -109483529 -893589512
            2062447573 -1148863761 -339885224 -84115468</internalNodes>
          <leafValues>
            -3.5129302740097046e-01 1.4906840026378632e-01</leafValues></_>
        <_>
          <internalNodes>
            0 -1 93 281160832 -285830982 -1431783039 1342039740
            -1182815500 -1705237768 2132600190 1465622204</internalNodes>
          <leafValues>
            -3.4004604816436768e-01 1.6068588197231293e-01</leafValues></_>
        <_>
          <internalNodes>
            0 -1 238 -550666604 868209161 1037855484 834060080 903680148
            -2805928 616021690 1090468723</internalNodes>
          <leafValues>
            -3.0086469650268555e-01 1.7003175616264343e-01</leafValues></_>
        <_>
          <internalNodes>
            0 -1 0 536912074 -728357688 451975650 -1127704982 -512058370
            1813837131 259119497 -903959841</internalNodes>
          <leafValues>
            -2.7190664410591125e-01 1.9049888849258423e-01</leafValues></_>
        <_>
          <internalNodes>
            0 -1 298 512323376 502662084 725775812 -1360725000
            1379814004 977838316 939195224 1167101692</internalNodes>
          <leafValues>
            -4.6778550744056702e-01 1.0552317649126053e-01</leafValues></_></weakClassifiers></_>
    <!-- stage 11 -->
    <_>
      <maxWeakCount>36</maxWeakCount>
      <stageThreshold>-2.4482707977294922e+00</stageThreshold>
      <weakClassifiers>
        <_>
          <internalNodes>
            0 -1 255 -19147003 -119537697 -1216348165 -131169 -4725041
            -1174668325 -1107558401 -304087073</internalNodes>
          <leafValues>
            -7.9792386293411255e-01 -4.1909518837928772e-01</leafValues></_>
        <_>
          <internalNodes>
            0 -1 59 1358954495 -2097490945 -560808971 -1343169797
            -609537029 -1359734345 -349012353 -10256585</internalNodes>
          <leafValues>
            -4.2951294779777527e-01 1.1644519120454788e-01</leafValues></_>
        <_>
          <internalNodes>
            0 -1 163 1975731328 -305217 2009185142 -46173353 -671224369
            -71304004 1994751775 1040023487</internalNodes>
          <leafValues>
            -3.6035662889480591e-01 1.9474586844444275e-01</leafValues></_>
        <_>
          <internalNodes>
            0 -1 68 1473703598 -540606732 -16857882 -33697836 1492966654
            -123949386 1223482366 436166015</internalNodes>
          <leafValues>
            -2.9194259643554688e-01 2.1999990940093994e-01</leafValues></_>
        <_>
          <internalNodes>
            0 -1 141 1951702144 2006771364 -324129196 -436376844
            2111572380 2129974014 -28016824 620722039</internalNodes>
          <leafValues>
            -3.2939457893371582e-01 2.0836551487445831e-01</leafValues></_>
        <_>
          <internalNodes>
            0 -1 69 -268442112 -823205462 395448418 -571540496
            -1153481929 -1890653559 1724788863 -175647246</internalNodes>
          <leafValues>
            -2.6233464479446411e-01 2.2309362888336182e-01</leafValues></_>
        <_>
          <internalNodes>
            0 -1 100 -557978897 520249316 -499066974 1004043992
            1509738728 1530678198 -22094116 2146926423</internalNodes>
          <leafValues>
            -2.6399207115173340e-01 2.1707862615585327e-01</leafValues></_>
        <_>
          <internalNodes>
            0 -1 270 -350634189 -2026182192 -2371727 -5384724 3445437
            -2102404179 1453223421 -1124151044</internalNodes>
          <leafValues>
            -2.5992450118064880e-01 2.1223028004169464e-01</leafValues></_>
        <_>
          <internalNodes>
            0 -1 155 -33598340 1053883372 -811670668 -17039620
            -280671808 955308284 2061396730 2044570291</internalNodes>
          <leafValues>
            -2.6922777295112610e-01 2.1366532146930695e-01</leafValues></_>
        <_>
          <internalNodes>
            0 -1 240 1465848193 991161076 533396872 900660733 -36278276
            1870527478 -4393474 939523967</internalNodes>
          <leafValues>
            -2.3267844319343567e-01 2.2385512292385101e-01</leafValues></_>
        <_>
          <internalNodes>
            0 -1 221 1044315997 748876764 969578387 -1342253900
            -1711769103 -100810311 -1081710732 782108464</internalNodes>
          <leafValues>
            -4.1692009568214417e-01 1.2772539258003235e-01</leafValues></_>
        <_>
          <internalNodes>
            0 -1 70 530001563 -1696664850 -400810034 -1343750306
            -35651794 -10683464 -5267585 2110742418</internalNodes>
          <leafValues>
            -2.2627158463001251e-01 2.2900642454624176e-01</leafValues></_>
        <_>
          <internalNodes>
            0 -1 145 1996987033 -58483728 -538157227 -939554000
            -117720092 1537055676 -339281282 2140118014</internalNodes>
          <leafValues>
            -2.1371187269687653e-01 2.4723364412784576e-01</leafValues></_>
        <_>
          <internalNodes>
            0 -1 16 579512872 -1503510658 1141702616 114094076 -75764892
            -16780292 -65077516 -191561888</internalNodes>
          <leafValues>
            -7.1112304925918579e-01 7.0254437625408173e-02</leafValues></_>
        <_>
          <internalNodes>
            0 -1 177 527261659 943259580 -16847237 985136812 2129678144
            1071579129 -104674 1054809855</internalNodes>
          <leafValues>
            -2.1494147181510925e-01 2.5053989887237549e-01</leafValues></_>
        <_>
          <internalNodes>
            0 -1 283 -361238996 956023790 748337354 573682204 -8427964
            487056965 -118030676 -766313612</internalNodes>
          <leafValues>
            -3.3710706233978271e-01 1.5184725821018219e-01</leafValues></_>
        <_>
          <internalNodes>
            0 -1 253 402546985 821606777 -1080461384 -1932677156
            2113759028 351424956 -5507763 -1929643841</internalNodes>
          <leafValues>
            -2.6786580681800842e-01 1.9088333845138550e-01</leafValues></_>
        <_>
          <internalNodes>
            0 -1 30 -1502695870 -1241519362 -765557778 -1089541378
            -68912193 2075176875 -539837505 -39485956</internalNodes>
          <leafValues>
            -2.5579768419265747e-01 2.0505414903163910e-01</leafValues></_>
        <_>
          <internalNodes>
            0 -1 277 -269100507 1029242160 -1955073040 -1393561664
            1540912144 86238965 -1025071920 -453712204</internalNodes>
          <leafValues>
            -4.0718370676040649e-01 1.2206226587295532e-01</leafValues></_>
        <_>
          <internalNodes>
            0 -1 260 2008201728 -1076233256 1527962008 804642044
            1280450456 2147427516 1545387834 218559995</internalNodes>
          <leafValues>
            -3.0732741951942444e-01 1.6699180006980896e-01</leafValues></_>
        <_>
          <internalNodes>
            0 -1 77 2122047485 1071525647 -1086816394 -987430986
            2142797658 1607744630 -8495238 -176160898</internalNodes>
          <leafValues>
            -2.1722337603569031e-01 2.2747671604156494e-01</leafValues></_>
        <_>
          <internalNodes>
            0 -1 54 -960511025 -8523909 -335679761 -537989404 1878709421
            -722600656 -113997828 -68076268</internalNodes>
          <leafValues>
            -1.8376089632511139e-01 2.8275337815284729e-01</leafValues></_>
        <_>
          <internalNodes>
            0 -1 236 1953541712 -529829483 -1654727841 -1246241313
            -699157888 -184706323 -166268710 -1431040708</internalNodes>
          <leafValues>
            -2.3113064467906952e-01 2.4004158377647400e-01</leafValues></_>
        <_>
          <internalNodes>
            0 -1 101 2130654911 106187951 1879470618 1484315128
            -1163522496 2049859666 -76223780 -97477254</internalNodes>
          <leafValues>
            -3.4098911285400391e-01 1.4885351061820984e-01</leafValues></_>
        <_>
          <internalNodes>
            0 -1 86 1520479872 -1181581440 -6469005 1106538262
            1202708216 -642844469 2111051004 216220727</internalNodes>
          <leafValues>
            -3.0650824308395386e-01 1.5856435894966125e-01</leafValues></_>
        <_>
          <internalNodes>
            0 -1 83 1443858562 250003436 50351240 1065254770 -42148080
            2128591349 901742252 1289134076</internalNodes>
          <leafValues>
            -4.1083255410194397e-01 1.1072219908237457e-01</leafValues></_>
        <_>
          <internalNodes>
            0 -1 173 1011027925 436400381 -502081748 -436282476
            -309387376 -1155691862 -357631106 889058295</internalNodes>
          <leafValues>
            -2.6404458284378052e-01 1.7921084165573120e-01</leafValues></_>
        <_>
          <internalNodes>
            0 -1 271 -1084317775 1016914743 -1180566064 -1393691042
            1512600421 227446708 -147653256 -303672578</internalNodes>
          <leafValues>
            -2.4211715161800385e-01 1.9883209466934204e-01</leafValues></_>
        <_>
          <internalNodes>
            0 -1 250 771137340 725399988 -217344684 -1343229788
            710568661 2062805229 1585211765 -1393656588</internalNodes>
          <leafValues>
            -4.0039873123168945e-01 1.2281750142574310e-01</leafValues></_>
        <_>
          <internalNodes>
            0 -1 53 2128277386 674652952 1187956344 1709916592
            2141191133 -792696460 1840700390 1343442898</internalNodes>
          <leafValues>
            -3.4713047742843628e-01 1.4575681090354919e-01</leafValues></_>
        <_>
          <internalNodes>
            0 -1 23 -475534134 1145990124 -1024823734 -239286604
            1807742682 1866433524 1087748027 1351954912</internalNodes>
          <leafValues>
            -3.0066281557083130e-01 1.5181894600391388e-01</leafValues></_>
        <_>
          <internalNodes>
            0 -1 289 1214576370 -572645026 1950219693 -545292561
            -1229354864 767459327 1031417512 -8684195</internalNodes>
          <leafValues>
            -1.6806007921695709e-01 2.8612476587295532e-01</leafValues></_>
        <_>
          <internalNodes>
            0 -1 147 1755492031 -489098058 2124472862 1975276532
            1792701428 -357445404 -68273286 -1132659852</internalNodes>
          <leafValues>
            -2.9872751235961914e-01 1.5536621212959290e-01</leafValues></_>
        <_>
          <internalNodes>
            0 -1 32 -1362432273 863124082 -1373984386 -1920991620
            2044361596 2138340335 2140566520 1555029118</internalNodes>
          <leafValues>
            -2.3238267004489899e-01 2.0344614982604980e-01</leafValues></_>
        <_>
          <internalNodes>
            0 -1 193 -25395277 -1125320246 1447031327 -1080494084
            -542233612 985583033 -47425196 -1090733452</internalNodes>
          <leafValues>
            -3.2090601325035095e-01 1.4247310161590576e-01</leafValues></_>
        <_>
          <internalNodes>
            0 -1 116 917482467 -896206084 2025716114 131980147
            1585387848 -849677156 -8520849 1356232703</internalNodes>
          <leafValues>
            -2.1530738472938538e-01 2.2978740930557251e-01</leafValues></_></weakClassifiers></_>
    <!-- stage 12 -->
    <_>
      <maxWeakCount>33</maxWeakCount>
      <stageThreshold>-2.3224625587463379e+00</stageThreshold>
      <weakClassifiers>
        <_>
          <internalNodes>
            0 -1 61 -391847947 -622890755 -547627521 -44289 -203686913
            -4198149 -371195937 -268436801</internalNodes>
          <leafValues>
            -7.7795857191085815e-01 -3.4393402934074402e-01</leafValues></_>
        <_>
          <internalNodes>
            0 -1 292 -214175056 -12191749 -1312605193 -360864786
            -69337232 2095624868 -8915094 2136342490</internalNodes>
          <leafValues>
            -4.6124470233917236e-01 7.1764983236789703e-02</leafValues></_>
        <_>
          <internalNodes>
            0 -1 57 -326228754 -159420726 -1899601681 -34631994
            -1158195654 -339144098 -755352751 -8962495</internalNodes>
          <leafValues>
            -3.1345111131668091e-01 2.1876440942287445e-01</leafValues></_>
        <_>
          <internalNodes>
            0 -1 1 1653451503 -135266833 669458542 -539104274 1541271455
            -167789066 -557853185 -301994241</internalNodes>
          <leafValues>
            -1.8928425014019012e-01 3.3176386356353760e-01</leafValues></_>
        <_>
          <internalNodes>
            0 -1 258 -14316 984579889 774143984 602897393 -258876 -32769
            -332087300 -95355022</internalNodes>
          <leafValues>
            -2.0481087267398834e-01 2.7889922261238098e-01</leafValues></_>
        <_>
          <internalNodes>
            0 -1 102 -50626817 523386873 1810956272 1005584374
            1557421268 -839090818 -1082761768 1610571743</internalNodes>
          <leafValues>
            -2.1359781920909882e-01 2.5679785013198853e-01</leafValues></_>
        <_>
          <internalNodes>
            0 -1 158 481558239 -666313825 -879296749 98458024 -40576264
            -1225721428 -98550792 1005723514</internalNodes>
          <leafValues>
            -2.3872375488281250e-01 2.3444324731826782e-01</leafValues></_>
        <_>
          <internalNodes>
            0 -1 205 1919387319 1601044093 -1503338532 -268435476
            -268582960 -144900106 -302055558 2143256446</internalNodes>
          <leafValues>
            -2.0229828357696533e-01 2.6663938164710999e-01</leafValues></_>
        <_>
          <internalNodes>
            0 -1 187 2049964720 -68695050 -636683276 -8588844 1855946734
            1387788796 108092799 209567422</internalNodes>
          <leafValues>
            -2.9589518904685974e-01 1.7925706505775452e-01</leafValues></_>
        <_>
          <internalNodes>
            0 -1 263 2093475753 803060432 -810028812 -1619201168
            -67827388 2008750589 -898647196 -153813004</internalNodes>
          <leafValues>
            -3.5670304298400879e-01 1.5562881529331207e-01</leafValues></_>
        <_>
          <internalNodes>
            0 -1 9 798252 -829492042 -825951524 -1982007598 465525240
            -235884034 492326588 1058045940</internalNodes>
          <leafValues>
            -7.7270871400833130e-01 6.5397866070270538e-02</leafValues></_>
        <_>
          <internalNodes>
            0 -1 242 2111769748 796785492 -1416721504 933558236
            -780250480 1736031216 2147404366 2012708726</internalNodes>
          <leafValues>
            -3.1535679101943970e-01 1.5703110396862030e-01</leafValues></_>
        <_>
          <internalNodes>
            0 -1 90 -1011946589 -355808352 477368406 -244528688
            1218535990 -1347759965 -1445252749 -168304522</internalNodes>
          <leafValues>
            -2.5209468603134155e-01 2.0732316374778748e-01</leafValues></_>
        <_>
          <internalNodes>
            0 -1 106 484357631 993015303 1946841327 401627006 1663866900
            1756655668 -75990052 -78448822</internalNodes>
          <leafValues>
            -2.4183355271816254e-01 1.9434662163257599e-01</leafValues></_>
        <_>
          <internalNodes>
            0 -1 216 223869867 1067373436 -1628781369 -810617612
            318534132 -92949512 -528594182 620722807</internalNodes>
          <leafValues>
            -2.1255123615264893e-01 2.2794766724109650e-01</leafValues></_>
        <_>
          <internalNodes>
            0 -1 60 1145065712 -739497246 -7340041 -101984040 930345499
            -88558790 1327649724 -2119524610</internalNodes>
          <leafValues>
            -2.1545857191085815e-01 2.2087693214416504e-01</leafValues></_>
        <_>
          <internalNodes>
            0 -1 115 1806600834 -1629696132 -303916682 1974861696
            2102860572 2061138365 -421831122 1878482059</internalNodes>
          <leafValues>
            -3.3426332473754883e-01 1.4334036409854889e-01</leafValues></_>
        <_>
          <internalNodes>
            0 -1 24 746332716 -1284592132 1536042190 -1594039620
            -9156609 -1344879984 -110298818 -602639244</internalNodes>
          <leafValues>
            -5.0717043876647949e-01 8.8723182678222656e-02</leafValues></_>
        <_>
          <internalNodes>
            0 -1 226 1792972433 536514660 -627483721 793689321 -21472832
            -141999476 -555423880 -1095447948</internalNodes>
          <leafValues>
            -2.5358596444129944e-01 1.8575203418731689e-01</leafValues></_>
        <_>
          <internalNodes>
            0 -1 95 -907301221 -1771896930 -67313715 800587142
            -412295175 1608450046 -16847265 2113887946</internalNodes>
          <leafValues>
            -1.9022564589977264e-01 2.4787226319313049e-01</leafValues></_>
        <_>
          <internalNodes>
            0 -1 265 -3674111 -136402671 1490638192 -1462996998
            -839488256 1634974071 1511832308 1744761303</internalNodes>
          <leafValues>
            -3.9481818675994873e-01 1.1664927005767822e-01</leafValues></_>
        <_>
          <internalNodes>
            0 -1 148 -800205865 -1667959820 -783596065 -1486684420
            -872766468 -137092413 -1546073388 2011635510</internalNodes>
          <leafValues>
            -2.4227839708328247e-01 1.8851608037948608e-01</leafValues></_>
        <_>
          <internalNodes>
            0 -1 91 453378592 2120650660 -829489596 1199898368 196938728
            1593215477 1790200684 613896072</internalNodes>
          <leafValues>
            -4.7370547056198120e-01 9.8680295050144196e-02</leafValues></_>
        <_>
          <internalNodes>
            0 -1 15 -255399332 1046913471 -153547025 743359788
            1979239227 -27526437 -99423445 -537982123</internalNodes>
          <leafValues>
            -2.1836763620376587e-01 2.2829110920429230e-01</leafValues></_>
        <_>
          <internalNodes>
            0 -1 188 366313653 -1508320780 1665306296 -1359023344
            2077774581 1012670712 -285316548 800028658</internalNodes>
          <leafValues>
            -2.5923418998718262e-01 1.7184750735759735e-01</leafValues></_>
        <_>
          <internalNodes>
            0 -1 109 2608 642019318 -1241564474 905281348 268279228
            1070426351 -654939440 753796844</internalNodes>
          <leafValues>
            -5.8722561597824097e-01 7.5189046561717987e-02</leafValues></_>
        <_>
          <internalNodes>
            0 -1 284 1271979448 218168060 1927088 1051765722 -605158740
            -1290933402 -1561023508 939518950</internalNodes>
          <leafValues>
            -2.4343207478523254e-01 1.8319253623485565e-01</leafValues></_>
        <_>
          <internalNodes>
            0 -1 273 726382186 -1101103876 -1021893793 -1879199276
            2059892516 145402441 772254637 -1965323784</internalNodes>
          <leafValues>
            -2.5640547275543213e-01 1.7476159334182739e-01</leafValues></_>
        <_>
          <internalNodes>
            0 -1 21 -374349073 -39833874 -139698302 2145761779
            -1881243651 -28023137 -975349891 -605032724</internalNodes>
          <leafValues>
            -1.5260361135005951e-01 2.9950115084648132e-01</leafValues></_>
        <_>
          <internalNodes>
            0 -1 195 -1107299843 751360236 -1805727883 -304997036
            -429110536 964544764 1593732952 914304566</internalNodes>
          <leafValues>
            -2.7200660109519958e-01 1.6183671355247498e-01</leafValues></_>
        <_>
          <internalNodes>
            0 -1 275 67375152 -117600135 872841118 1943989563
            -1217529136 -165659632 -217134933 -377757928</internalNodes>
          <leafValues>
            -2.6126429438591003e-01 1.7631061375141144e-01</leafValues></_>
        <_>
          <internalNodes>
            0 -1 184 170927664 646509528 620576351 -922948634 1654405068
            -1082636231 1039690240 -1403779728</internalNodes>
          <leafValues>
            -5.0148791074752808e-01 8.7413802742958069e-02</leafValues></_>
        <_>
          <internalNodes>
            0 -1 269 2077959893 624620765 -234158700 -1610686468
            -538018843 -965212743 -134769544 -1061364226</internalNodes>
          <leafValues>
            -2.5926792621612549e-01 1.7283776402473450e-01</leafValues></_></weakClassifiers></_>
    <!-- stage 13 -->
    <_>
      <maxWeakCount>38</maxWeakCount>
      <stageThreshold>-2.2368230819702148e+00</stageThreshold>
      <weakClassifiers>
        <_>
          <internalNodes>
            0 -1 291 -9697 -2101249 -585377893 -3150137 -67126085
            -2102065 -4479009 -76042353</internalNodes>
          <leafValues>
            -7.5593769550323486e-01 -3.1522324681282043e-01</leafValues></_>
        <_>
          <internalNodes>
            0 -1 110 -1259071616 -1145586947 1702433095 2145103855
            -1144934187 -38211149 -1096974529 -1644327009</internalNodes>
          <leafValues>
            -4.7446632385253906e-01 4.3195087462663651e-02</leafValues></_>
        <_>
          <internalNodes>
            0 -1 300 -1855657675 243852331 450543344 754723068
            -1211760709 542924936 -12716097 -1931691538</internalNodes>
          <leafValues>
            -3.0174222588539124e-01 1.9722135365009308e-01</leafValues></_>
        <_>
          <internalNodes>
            0 -1 150 -8396988 2145281278 -1770193184 1842346964
            -537170598 1291638932 527327134 -1654784300</internalNodes>
          <leafValues>
            -3.4851273894309998e-01 1.6340929269790649e-01</leafValues></_>
        <_>
          <internalNodes>
            0 -1 262 -4224 -197148 -5251652 534502972 -1067931460
            1610210804 -835198982 1564213234</internalNodes>
          <leafValues>
            -2.3450674116611481e-01 2.4182094633579254e-01</leafValues></_>
        <_>
          <internalNodes>
            0 -1 66 1535819498 1485750006 2139015700 1307397924
            1157450122 -33637446 -404335650 1472985947</internalNodes>
          <leafValues>
            -3.2461306452751160e-01 1.7685231566429138e-01</leafValues></_>
        <_>
          <internalNodes>
            0 -1 247 1940585314 -1422855334 -73400340 -271797384
            2080142273 -612377695 736391392 -385977424</internalNodes>
          <leafValues>
            -3.7068355083465576e-01 1.3514371216297150e-01</leafValues></_>
        <_>
          <internalNodes>
            0 -1 140 -90506565 -160286774 -1074340286 -43206668
            1601138364 -1091043330 1878358271 -855813036</internalNodes>
          <leafValues>
            -1.8699654936790466e-01 2.8494080901145935e-01</leafValues></_>
        <_>
          <internalNodes>
            0 -1 104 2113845231 -701180363 -118789 1801158421 2142141812
            2138857333 -100564 -76808226</internalNodes>
          <leafValues>
            -1.5535549819469452e-01 3.1173858046531677e-01</leafValues></_>
        <_>
          <internalNodes>
            0 -1 43 -121640209 -419896377 1455778410 -54867226
            -530038257 818223200 -68775922 1933033363</internalNodes>
          <leafValues>
            -2.5787863135337830e-01 1.9012977182865143e-01</leafValues></_>
        <_>
          <internalNodes>
            0 -1 151 1155361990 395901949 -768156705 -1512971668
            1006389596 1061485492 -1627764148 2147434354</internalNodes>
          <leafValues>
            -2.4873627722263336e-01 1.9199317693710327e-01</leafValues></_>
        <_>
          <internalNodes>
            0 -1 159 267775614 -1646291844 -1638103288 217898478
            -1623624396 -55387852 531101052 146766204</internalNodes>
          <leafValues>
            -3.3052900433540344e-01 1.4371211826801300e-01</leafValues></_>
        <_>
          <internalNodes>
            0 -1 171 1390029331 -1094784161 -917049460 -273752348
            1299872304 2106689790 -17297624 1056833398</internalNodes>
          <leafValues>
            -3.1409043073654175e-01 1.4328138530254364e-01</leafValues></_>
        <_>
          <internalNodes>
            0 -1 164 1957561984 705847088 1955970591 -48054716
            2046238652 -1080069895 631590783 929509211</internalNodes>
          <leafValues>
            -3.6418277025222778e-01 1.2158862501382828e-01</leafValues></_>
        <_>
          <internalNodes>
            0 -1 121 207661568 -1435726220 1630426340 -269189292
            332667116 -1295354898 2146982268 651984724</internalNodes>
          <leafValues>
            -6.2096852064132690e-01 6.7835390567779541e-02</leafValues></_>
        <_>
          <internalNodes>
            0 -1 96 336464552 -1628513284 -1326907704 -339903307
            -84214060 978297204 -277938413 392035576</internalNodes>
          <leafValues>
            -3.2352888584136963e-01 1.3396781682968140e-01</leafValues></_>
        <_>
          <internalNodes>
            0 -1 154 1073741819 -1615563976 1852987038 795797426
            -539689520 517239741 738122612 1588805307</internalNodes>
          <leafValues>
            -2.2568339109420776e-01 2.0054386556148529e-01</leafValues></_>
        <_>
          <internalNodes>
            0 -1 170 1659741827 576629435 -1900653540 -286326816
            1485003828 1005406861 -1136997308 1156644578</internalNodes>
          <leafValues>
            -4.6556335687637329e-01 9.2112056910991669e-02</leafValues></_>
        <_>
          <internalNodes>
            0 -1 7 570984960 648916159 -1533153736 586870764 1132088444
            -1315145 1961837629 246304597</internalNodes>
          <leafValues>
            -6.2515193223953247e-01 6.5882973372936249e-02</leafValues></_>
        <_>
          <internalNodes>
            0 -1 67 1476316383 -5247238 -487684 1744686431 1289700860
            -302186497 1728005500 1744699231</internalNodes>
          <leafValues>
            -1.7421881854534149e-01 2.5255963206291199e-01</leafValues></_>
        <_>
          <internalNodes>
            0 -1 254 -2133558437 -629264549 1994660780 426505917
            1031256836 -1347755986 1462918714 -1988937419</internalNodes>
          <leafValues>
            -2.6412147283554077e-01 1.6425627470016479e-01</leafValues></_>
        <_>
          <internalNodes>
            0 -1 281 -489098401 1043939181 1618992119 156493534
            -1099630458 -184993988 1483799496 -1473193190</internalNodes>
          <leafValues>
            -1.8008324503898621e-01 2.4415719509124756e-01</leafValues></_>
        <_>
          <internalNodes>
            0 -1 210 -1214994753 2070459372 -571938584 -1074802576
            -1143325708 1939843244 -68285638 1971321590</internalNodes>
          <leafValues>
            -2.0579050481319427e-01 2.0553216338157654e-01</leafValues></_>
        <_>
          <internalNodes>
            0 -1 108 13416955 -922823731 -221577928 897222902
            -1704301032 838368047 -362520728 -9207946</internalNodes>
          <leafValues>
            -2.3922182619571686e-01 1.7994049191474915e-01</leafValues></_>
        <_>
          <internalNodes>
            0 -1 55 -1570216256 -1001500210 -871480348 -840389910
            -538882348 -114793871 484711712 -414161628</internalNodes>
          <leafValues>
            -3.6947801709175110e-01 1.1724580824375153e-01</leafValues></_>
        <_>
          <internalNodes>
            0 -1 50 1658846355 -158269828 1582484732 -963723844
            1937646277 207054903 -1098817580 1448344927</internalNodes>
          <leafValues>
            -3.3289596438407898e-01 1.2937043607234955e-01</leafValues></_>
        <_>
          <internalNodes>
            0 -1 257 521999776 1068590385 -1114711112 -1342005772
            1499222912 -76221498 1010597750 1081146740</internalNodes>
          <leafValues>
            -4.1757068037986755e-01 1.0197688639163971e-01</leafValues></_>
        <_>
          <internalNodes>
            0 -1 217 -575702767 -1090735884 -829050976 -1663697436
            -1078004748 1031650012 1023102602 1814036347</internalNodes>
          <leafValues>
            -2.3971968889236450e-01 1.7892591655254364e-01</leafValues></_>
        <_>
          <internalNodes>
            0 -1 204 545007776 931069380 2062056317 116699470 -336310412
            1073408139 -109538443 -654819472</internalNodes>
          <leafValues>
            -4.1071605682373047e-01 1.0135366767644882e-01</leafValues></_>
        <_>
          <internalNodes>
            0 -1 14 -819342647 -39152386 180299494 -404320864
            -1149239878 -304092034 -683001986 2093911986</internalNodes>
          <leafValues>
            -1.9769345223903656e-01 2.2385007143020630e-01</leafValues></_>
        <_>
          <internalNodes>
            0 -1 222 -143656905 -1996217860 -712784784 -292895456
            997407025 962175217 1480346708 619673562</internalNodes>
          <leafValues>
            -3.3293846249580383e-01 1.2573683261871338e-01</leafValues></_>
        <_>
          <internalNodes>
            0 -1 251 -1715503427 469630782 -33563632 -537067524
            1023393717 -730562636 2105323514 -35656226</internalNodes>
          <leafValues>
            -1.4847409725189209e-01 2.8477871417999268e-01</leafValues></_>
        <_>
          <internalNodes>
            0 -1 286 2064445377 1937824968 2094485936 -817091864
            1021961068 695614369 -173115424 -856887300</internalNodes>
          <leafValues>
            -2.7313899993896484e-01 1.5463915467262268e-01</leafValues></_>
        <_>
          <internalNodes>
            0 -1 287 -680575033 1442774500 -549 -1381007880 -1896579851
            -587932163 1869578047 -33825378</internalNodes>
          <leafValues>
            -1.2509414553642273e-01 3.4427106380462646e-01</leafValues></_>
        <_>
          <internalNodes>
            0 -1 94 1369852849 -204669195 -285421908 -1342439586
            1576980220 -134447234 -1342546081 609746782</internalNodes>
          <leafValues>
            -1.9212910532951355e-01 2.1141961216926575e-01</leafValues></_>
        <_>
          <internalNodes>
            0 -1 37 -352393489 -1117514314 -1474631140 -1077954954
            1829666559 1810133548 2141084538 -1653089440</internalNodes>
          <leafValues>
            -2.1313682198524475e-01 1.9547210633754730e-01</leafValues></_>
        <_>
          <internalNodes>
            0 -1 153 1289430212 1055421177 -455435282 -1133320500
            -25665747 -546917398 -104285572 -93130384</internalNodes>
          <leafValues>
            -3.4614372253417969e-01 1.3040094077587128e-01</leafValues></_>
        <_>
          <internalNodes>
            0 -1 72 2054032256 -543174410 260972381 -808462357
            -340002056 -608196365 1063190362 -1822785908</internalNodes>
          <leafValues>
            -2.5364270806312561e-01 1.7199677228927612e-01</leafValues></_></weakClassifiers></_></stages>
  <features>
    <_>
      <rect>
        0 0 1 1</rect></_>
    <_>
      <rect>
        0 0 1 3</rect></_>
    <_>
      <rect>
        0 0 1 4</rect></_>
    <_>
      <rect>
        0 0 2 2</rect></_>
    <_>
      <rect>
        0 0 3 4</rect></_>
    <_>
      <rect>
        0 0 3 5</rect></_>
    <_>
      <rect>
        0 0 4 1</rect></_>
    <_>
      <rect>
        0 0 4 2</rect></_>
    <_>
      <rect>
        0 0 4 3</rect></_>
    <_>
      <rect>
        0 0 4 5</rect></_>
    <_>
      <rect>
        0 0 5 3</rect></_>
    <_>
      <rect>
        0 0 5 4</rect></_>
    <_>
      <rect>
        0 0 5 5</rect></_>
    <_>
      <rect>
        0 1 1 1</rect></_>
    <_>
      <rect>
        0 1 1 2</rect></_>
    <_>
      <rect>
        0 1 4 1</rect></_>
    <_>
      <rect>
        0 1 5 5</rect></_>
    <_>
      <rect>
        0 2 1 2</rect></_>
    <_>
      <rect>
        0 2 2 3</rect></_>
    <_>
      <rect>
        0 2 3 2</rect></_>
    <_>
      <rect>
        0 3 1 1</rect></_>
    <_>
      <rect>
        0 3 1 2</rect></_>
    <_>
      <rect>
        0 3 3 3</rect></_>
    <_>
      <rect>
        0 4 1 1</rect></_>
    <_>
      <rect>
        0 4 1 4</rect></_>
    <_>
      <rect>
        0 4 3 3</rect></_>
    <_>
      <rect>
        0 4 3 4</rect></_>
    <_>
      <rect>
        0 4 4 2</rect></_>
    <_>
      <rect>
        0 5 1 1</rect></_>
    <_>
      <rect>
        0 5 1 2</rect></_>
    <_>
      <rect>
        0 5 1 3</rect></_>
    <_>
      <rect>
        0 5 2 2</rect></_>
    <_>
      <rect>
        0 5 2 3</rect></_>
    <_>
      <rect>
        0 5 3 2</rect></_>
    <_>
      <rect>
        0 6 1 2</rect></_>
    <_>
      <rect>
        0 6 2 1</rect></_>
    <_>
      <rect>
        0 6 2 2</rect></_>
    <_>
      <rect>
        0 6 2 3</rect></_>
    <_>
      <rect>
        0 6 3 2</rect></_>
    <_>
      <rect>
        0 7 1 1</rect></_>
    <_>
      <rect>
        0 7 2 1</rect></_>
    <_>
      <rect>
        0 7 2 3</rect></_>
    <_>
      <rect>
        0 7 3 2</rect></_>
    <_>
      <rect>
        0 8 1 1</rect></_>
    <_>
      <rect>
        0 8 2 2</rect></_>
    <_>
      <rect>
        0 8 3 2</rect></_>
    <_>
      <rect>
        0 9 1 1</rect></_>
    <_>
      <rect>
        0 9 1 2</rect></_>
    <_>
      <rect>
        0 9 2 1</rect></_>
    <_>
      <rect>
        0 10 1 2</rect></_>
    <_>
      <rect>
        0 10 2 1</rect></_>
    <_>
      <rect>
        0 10 2 2</rect></_>
    <_>
      <rect>
        0 10 3 2</rect></_>
    <_>
      <rect>
        0 10 4 2</rect></_>
    <_>
      <rect>
        0 11 1 1</rect></_>
    <_>
      <rect>
        0 12 1 1</rect></_>
    <_>
      <rect>
        0 12 2 1</rect></_>
    <_>
      <rect>
        0 13 1 1</rect></_>
    <_>
      <rect>
        0 13 2 1</rect></_>
    <_>
      <rect>
        0 13 3 1</rect></_>
    <_>
      <rect>
        1 0 2 1</rect></_>
    <_>
      <rect>
        1 0 3 1</rect></_>
    <_>
      <rect>
        1 0 5 3</rect></_>
    <_>
      <rect>
        1 0 5 5</rect></_>
    <_>
      <rect>
        1 1 2 2</rect></_>
    <_>
      <rect>
        1 1 2 3</rect></_>
    <_>
      <rect>
        1 2 3 3</rect></_>
    <_>
      <rect>
        1 3 2 2</rect></_>
    <_>
      <rect>
        1 3 2 3</rect></_>
    <_>
      <rect>
        1 4 1 1</rect></_>
    <_>
      <rect>
        1 4 3 3</rect></_>
    <_>
      <rect>
        1 4 3 4</rect></_>
    <_>
      <rect>
        1 4 5 3</rect></_>
    <_>
      <rect>
        1 5 2 3</rect></_>
    <_>
      <rect>
        1 5 3 2</rect></_>
    <_>
      <rect>
        1 8 2 2</rect></_>
    <_>
      <rect>
        1 10 1 1</rect></_>
    <_>
      <rect>
        1 10 2 2</rect></_>
    <_>
      <rect>
        1 10 4 2</rect></_>
    <_>
      <rect>
        1 13 1 1</rect></_>
    <_>
      <rect>
        1 13 2 1</rect></_>
    <_>
      <rect>
        2 0 2 1</rect></_>
    <_>
      <rect>
        2 0 4 2</rect></_>
    <_>
      <rect>
        2 0 4 3</rect></_>
    <_>
      <rect>
        2 1 1 1</rect></_>
    <_>
      <rect>
        2 1 2 1</rect></_>
    <_>
      <rect>
        2 1 2 2</rect></_>
    <_>
      <rect>
        2 1 2 3</rect></_>
    <_>
      <rect>
        2 1 4 4</rect></_>
    <_>
      <rect>
        2 2 2 1</rect></_>
    <_>
      <rect>
        2 3 1 1</rect></_>
    <_>
      <rect>
        2 3 3 2</rect></_>
    <_>
      <rect>
        2 4 3 3</rect></_>
    <_>
      <rect>
        2 4 4 3</rect></_>
    <_>
      <rect>
        2 5 2 2</rect></_>
    <_>
      <rect>
        2 5 3 2</rect></_>
    <_>
      <rect>
        2 5 4 3</rect></_>
    <_>
      <rect>
        2 6 3 2</rect></_>
    <_>
      <rect>
        2 7 3 3</rect></_>
    <_>
      <rect>
        2 8 1 1</rect></_>
    <_>
      <rect>
        2 8 2 2</rect></_>
    <_>
      <rect>
        2 9 1 1</rect></_>
    <_>
      <rect>
        2 9 2 2</rect></_>
    <_>
      <rect>
        2 10 1 1</rect></_>
    <_>
      <rect>
        2 10 1 2</rect></_>
    <_>
      <rect>
        2 10 2 2</rect></_>
    <_>
      <rect>
        2 11 1 1</rect></_>
    <_>
      <rect>
        2 12 1 1</rect></_>
    <_>
      <rect>
        2 13 2 1</rect></_>
    <_>
      <rect>
        3 0 2 3</rect></_>
    <_>
      <rect>
        3 0 4 1</rect></_>
    <_>
      <rect>
        3 1 3 2</rect></_>
    <_>
      <rect>
        3 1 4 3</rect></_>
    <_>
      <rect>
        3 2 1 1</rect></_>
    <_>
      <rect>
        3 2 2 2</rect></_>
    <_>
      <rect>
        3 2 3 2</rect></_>
    <_>
      <rect>
        3 2 3 3</rect></_>
    <_>
      <rect>
        3 3 1 1</rect></_>
    <_>
      <rect>
        3 3 2 2</rect></_>
    <_>
      <rect>
        3 3 2 3</rect></_>
    <_>
      <rect>
        3 3 3 3</rect></_>
    <_>
      <rect>
        3 4 1 2</rect></_>
    <_>
      <rect>
        3 4 3 3</rect></_>
    <_>
      <rect>
        3 6 1 1</rect></_>
    <_>
      <rect>
        3 6 2 2</rect></_>
    <_>
      <rect>
        3 7 3 2</rect></_>
    <_>
      <rect>
        3 8 2 2</rect></_>
    <_>
      <rect>
        3 8 3 2</rect></_>
    <_>
      <rect>
        3 8 4 2</rect></_>
    <_>
      <rect>
        3 9 1 1</rect></_>
    <_>
      <rect>
        3 9 3 2</rect></_>
    <_>
      <rect>
        3 10 2 2</rect></_>
    <_>
      <rect>
        3 11 1 1</rect></_>
    <_>
      <rect>
        3 12 1 1</rect></_>
    <_>
      <rect>
        3 13 1 1</rect></_>
    <_>
      <rect>
        4 0 1 1</rect></_>
    <_>
      <rect>
        4 0 2 1</rect></_>
    <_>
      <rect>
        4 0 3 4</rect></_>
    <_>
      <rect>
        4 0 4 1</rect></_>
    <_>
      <rect>
        4 1 3 2</rect></_>
    <_>
      <rect>
        4 2 1 1</rect></_>
    <_>
      <rect>
        4 2 2 2</rect></_>
    <_>
      <rect>
        4 3 1 1</rect></_>
    <_>
      <rect>
        4 3 3 3</rect></_>
    <_>
      <rect>
        4 4 2 3</rect></_>
    <_>
      <rect>
        4 4 3 3</rect></_>
    <_>
      <rect>
        4 6 1 1</rect></_>
    <_>
      <rect>
        4 7 1 1</rect></_>
    <_>
      <rect>
        4 7 2 3</rect></_>
    <_>
      <rect>
        4 7 3 3</rect></_>
    <_>
      <rect>
        4 7 4 3</rect></_>
    <_>
      <rect>
        4 8 2 2</rect></_>
    <_>
      <rect>
        4 8 3 2</rect></_>
    <_>
      <rect>
        4 9 1 1</rect></_>
    <_>
      <rect>
